tree
version=v4
num_class=1
num_tree_per_iteration=1
label_index=0
max_feature_idx=12
objective=regression
feature_names=week cases_per_100k temp_avg humidity_avg vim month_sin month_cos week_sin week_cos cases_lag0 cases_lag1 precipitation_avg_ordinary_kriging_lag3 precipitation_avg_ordinary_kriging_lag4
feature_infos=[201205:202053] [-0.21733861223398251:36.376517673433945] [-4.9613670283396605:2.7165170155686322] [-4.506370513434617:13.948183920321533] [0.25776148863888021:0.87853177083726552] [-1:1] [-1:1] [-1:1] [-1:1] [-0.083865066052807385:63.443935506404898] [-0.084095154512979137:63.38758407979136] [-1.0311045453548684:5.9488514371004175] [-1.0310163213409336:5.9470707685754034]
tree_sizes=2776 2783 2753 2763 2772 2778 2766 2777 2791 2774 2756 2773 2779 2801 2763 2807 2798 2794 2800 2820 2793 2805 2809 2772 2784 2806 2819 2812 2794 2804 2801 2834 2795 2844 2827 2800 2796 2810 2808 2832 2803 2832 2822 2813 2796 2831 2815 2827 2809 2836 2843 2817 2862 2827 2819 2834 2843 2830 2849 2858 2836 2831 2851 2846 2836 2878 2871 2821 2868 2842 2860 2852 2892 2908 2856 2835 2849 2859 2872 2830 2877 2872 2898 2857 2896 2921 2886 2883 2911 2916 2866 2863 2900 2883 2892 2856 2911

Tree=0
num_leaves=31
num_cat=0
split_feature=9 9 9 9 7 9 9 2 9 9 6 9 9 6 6 2 6 0 7 9 9 9 11 0 9 6 2 9 0 11
split_gain=23667.9 2703.71 629.861 338.416 159.313 119.09 103.367 43.5371 36.3106 29.2215 18.8506 14.6769 13.8926 9.59603 5.9103 5.6408 5.17821 3.55214 3.15489 2.22383 1.94184 1.8407 2.20212 1.83273 1.64692 1.64672 1.45672 1.45575 1.42092 1.702
threshold=13.079105578804745 2.4968978413474838 0.45820312621286047 5.3281783196753354 0.56806474673282314 1.5250624368871233 0.056511159035911362 0.12446551846323363 3.3845075107546134 0.82534094567566341 1.0000000180025095e-35 -0.042832015642258824 0.20336628682103255 1.0000000180025095e-35 -0.24999999999999994 0.87489974538058979 1.0000000180025095e-35 201308.50000000003 0.97094181742616426 1.0369851004248087 -0.073066894892136705 1.0888163219960278 0.56255703777457489 201224.50000000003 0.76487118717590763 -0.5 -0.33294418432559775 -0.012597136392380951 201549.50000000003 0.93394587798455209
decision_type=2 2 2 2 2 2 2 2 2 2 2 2 2 2 2 2 2 2 2 2 2 2 2 2 2 2 2 2 2 2
left_child=1 2 6 7 -5 9 11 -3 -9 14 26 20 25 19 23 -12 -14 -15 24 -11 -1 22 -19 -4 -16 -8 -7 -13 29 -18
right_child=-2 3 5 4 -6 10 12 8 -10 13 15 27 16 17 18 -17 28 21 -20 -21 -22 -23 -24 -25 -26 -27 -28 -29 -30 -31
leaf_value=-0.0040133940798681971 1.5379775627549142 0.12505599467909848 0.032844947019780794 0.24359862127856924 0.43655123807641039 0.064625238139560157 0.0028048819424200131 0.16426206014368591 0.25123741857025683 0.030847816542167728 0.10097035265613417 -0.0011982324761775599 0.010177915809109549 0.074688190857137363 0.030363290761341637 0.13359980296272772 0.018392995750929786 0.036605569622978687 0.051626406158819915 0.046576370753593187 -0.002894296583631347 0.063678805572480082 0.059070057250127317 0.019144468562917322 0.045025138673025218 0.007065775626567251 0.08283947269504352 0.001032801352509341 0.015190207016582809 0.027675894924822385
leaf_weight=23919 25 30 30 20 23 23 323 28 21 38 26 1505 277 36 148 27 129 20 24 55 4626 40 24 131 22 761 21 1422 124 80
leaf_count=23919 25 30 30 20 23 23 323 28 21 38 26 1505 277 36 148 27 129 20 24 55 4626 40 24 131 22 761 21 1422 124 80
internal_value=-1.10312e-09 -0.00102533 -0.00187262 0.233932 0.346806 0.0463078 -0.00283867 0.172494 0.201537 0.0375638 0.0975096 -0.00348628 0.00919284 0.0522049 0.0287792 0.117593 0.0152289 0.0615477 0.0346565 0.0401496 -0.00383203 0.055916 0.0488589 0.0216974 0.0322607 0.00579616 0.0733184 -0.000114348 0.0194305 0.0219463
internal_weight=0 33953 33831 122 43 665 33166 79 49 568 97 31472 1694 213 355 53 610 120 194 93 28545 84 44 161 170 1084 44 2927 333 209
internal_count=33978 33953 33831 122 43 665 33166 79 49 568 97 31472 1694 213 355 53 610 120 194 93 28545 84 44 161 170 1084 44 2927 333 209
is_linear=0
shrinkage=1


Tree=1
num_leaves=31
num_cat=0
split_feature=9 9 9 9 8 9 9 8 4 9 9 3 9 9 11 4 0 7 3 8 4 9 8 7 9 11 9 9 12 0
split_gain=21360.3 2440.1 568.45 305.42 148.661 107.479 93.2888 36.8134 32.6997 26.3724 13.2459 12.8295 12.5381 3.84442 3.55503 3.44106 3.27853 3.65799 3.0722 2.50091 2.41587 2.39421 1.9956 2.12102 1.75251 1.5028 1.31381 1.16552 1.13904 1.04259
threshold=13.079105578804745 2.4968978413474838 0.45820312621286047 5.3281783196753354 -0.56806474673086049 1.5250624368871233 0.056511159035911362 -0.82298386589334205 0.75219204056473943 0.82534094567566341 -0.042832015642258824 -0.53753540269342925 0.20336628682103255 1.166563154352857 0.64565247629771483 0.66630901591420055 201308.50000000003 0.97094181742616426 0.12238875318105062 -0.4647231720423865 0.61301441407238244 0.33726360921334891 -0.23931566428613593 0.23931566428563703 -0.073066894892136705 0.76130453115910479 -0.012597136392380951 0.09970384367859407 0.083825274832743032 201308.50000000003
decision_type=2 2 2 2 2 2 2 2 2 2 2 2 2 2 2 2 2 2 2 2 2 2 2 2 2 2 2 2 2 2
left_child=1 2 6 7 -5 9 10 -3 -9 16 24 -7 27 14 -11 -15 17 -4 -16 -17 -13 28 -18 -24 -1 -23 -12 -8 -14 -30
right_child=-2 3 5 4 -6 11 12 8 -10 13 26 20 21 15 18 19 22 -19 -20 -21 -22 25 23 -25 -26 -27 -28 -29 29 -31
leaf_value=-0.0038127231460372232 1.4610786676406862 0.10714545193172637 0.030056699620534297 0.22976837575435641 0.41615873938021458 0.11916675615695216 0.0035823178162485295 0.21375552250279323 0.1363818122582002 0.038066431673535385 -0.0011383197828885587 0.066168526577807613 0.0091254983245693914 0.076315966546535496 0.068386296733565957 0.038483401920114249 0.019861109053806194 0.053736842210803715 0.043916318417880046 0.060086835100240002 0.086706738505098566 0.015354966668478871 0.035068777124538562 0.022617846596199025 -0.0027495806277491007 0.023948580266109534 0.0009811623446769756 0.0069034153492127659 0.021058557478439377 0.012745237978312866
leaf_weight=23919 25 21 73 20 23 31 456 36 22 83 1505 21 173 20 23 21 124 21 29 37 45 129 66 71 4626 84 1422 628 48 176
leaf_count=23919 25 21 73 20 23 31 456 36 22 83 1505 21 173 20 23 21 124 21 29 37 45 129 66 71 4626 84 1422 628 48 176
internal_value=0 -0.000974063 -0.00177899 0.222235 0.329466 0.0439924 -0.00269674 0.163869 0.184407 0.0356857 -0.00331196 0.0926341 0.0087332 0.0495946 0.0444887 0.0584318 0.0273403 0.0353469 0.0547396 0.0522649 0.0801719 0.0144675 0.0244566 0.0286161 -0.00364043 0.018744 -0.000108629 0.00550635 0.012173 0.0145267
internal_weight=0 33953 33831 122 43 665 33166 79 58 568 31472 97 1694 213 135 78 355 94 52 58 66 610 261 137 28545 213 2927 1084 397 224
internal_count=33978 33953 33831 122 43 665 33166 79 58 568 31472 97 1694 213 135 78 355 94 52 58 66 610 261 137 28545 213 2927 1084 397 224
is_linear=0
shrinkage=0.05


Tree=2
num_leaves=31
num_cat=0
split_feature=9 9 9 9 7 9 9 2 9 9 6 3 9 9 6 4 6 0 11 6 9 9 0 6 3 9 2 4 0 5
split_gain=19277.6 2202.19 513.026 275.642 140.117 96.9996 84.1932 37.7455 31.709 23.8183 16.6923 17.4195 12.023 11.3156 9.76233 5.69118 4.54863 4.33742 4.7264 3.94576 2.56487 1.83155 1.60097 1.48233 1.29213 1.29203 1.29055 1.1626 1.10553 1.17319
threshold=13.079105578804745 2.4968978413474838 0.45820312621286047 5.3281783196753354 0.56806474673282314 1.5250624368871233 0.056511159035911362 0.12446551846323363 3.3845075107546134 0.76487118717590763 1.0000000180025095e-35 -0.5108930902908112 -0.051470552570795365 0.20336628682103255 1.0000000180025095e-35 0.76124996508256859 1.0000000180025095e-35 201601.50000000003 0.65435452515074244 0.25000000000000017 1.0369851004248087 -0.012597136392380951 201601.50000000003 -0.5 -0.94489141483205075 0.59210044860517674 -0.33294418432559775 0.78479035175754019 201224.50000000003 0.93301270189221952
decision_type=2 2 2 2 2 2 2 2 2 2 2 2 2 2 2 2 2 2 2 2 2 2 2 2 2 2 2 2 2 2
left_child=1 2 6 7 -5 9 12 -3 -9 19 26 -12 -1 23 20 17 -15 18 -16 28 -11 -14 25 -8 -18 -21 -7 -17 -4 -30
right_child=-2 3 5 4 -6 10 13 8 -10 14 11 -13 21 16 15 27 24 -19 -20 22 -22 -23 -24 -25 -26 -27 -28 -29 29 -31
leaf_value=-0.0035043800254791675 1.3880247383117676 0.11150568226973218 0.028831814689671293 0.21620246678590777 0.3971573140310205 0.057055813948745315 0.0023929846933293201 0.14788510501384736 0.22916271913619268 0.026700896220771892 0.14372181132435799 0.084585511910192895 -0.0013502420154186128 0.0090101035768443572 0.057743634205115468 0.032895711947370461 0.024325639667610328 0.046492663354558109 0.086085842798153567 0.03224042960472645 0.041836250180547895 0.00093210423045134128 0.026435469389306729 0.0064356156923617239 0.01622183311896078 0.048303093583810901 0.074199721642902922 0.048581782036593989 0.016095658139614711 0.024908083252635802
leaf_weight=27748 25 30 34 20 23 23 323 28 21 57 20 33 2302 277 38 27 60 34 24 31 55 1422 54 761 273 21 21 21 116 56
leaf_count=27748 25 30 34 20 23 23 323 28 21 57 20 33 2302 277 38 27 60 34 24 31 55 1422 54 761 273 21 21 21 116 56
internal_value=0 -0.00092536 -0.00169004 0.211123 0.312992 0.0417928 -0.0025619 0.155676 0.182718 0.0339014 0.0880024 0.106901 -0.00314636 0.00829654 0.0452047 0.0538158 0.0137441 0.0608445 0.0687148 0.0246268 0.0341334 -0.000478734 0.0324654 0.00523103 0.017682 0.0387273 0.0652381 0.0397584 0.0205934 0.0189648
internal_weight=0 33953 33831 122 43 665 33166 79 49 568 97 53 31472 1694 256 144 610 96 62 312 112 3724 106 1084 333 52 44 48 206 172
internal_count=33978 33953 33831 122 43 665 33166 79 49 568 97 53 31472 1694 256 144 610 96 62 312 112 3724 106 1084 333 52 44 48 206 172
is_linear=0
shrinkage=0.05


Tree=3
num_leaves=31
num_cat=0
split_feature=10 10 10 0 10 10 10 8 8 2 1 2 0 10 10 10 10 0 2 7 8 3 2 4 4 8 1 4 10 10
split_gain=16680.9 1870.47 439.781 219.517 104.106 77.2505 60.4125 54.6112 26.1828 23.3602 17.7874 12.7001 12.6922 11.3971 8.12436 7.02085 5.93371 5.56022 4.17209 3.44419 3.31057 3.25148 3.11854 2.70282 2.23142 3.71587 3.13749 1.92159 1.69678 1.57539
threshold=12.501922828003245 2.6001164639081047 0.38413147024375333 201310.50000000003 1.1652284202987635 4.1601526376367568 0.008687079885820374 -0.74851074817004493 -0.35460488704273624 0.28914652311507361 0.47572670736573658 0.20527200980250029 201308.50000000003 0.19425154868341946 1.508306914936185 -0.0603601643179374 0.75094495507621661 201304.50000000003 0.53123576123239569 -2.5138479945479577e-13 -0.35460488704320176 -1.1304138953819611 0.24804091603952932 0.63596063452603147 0.66515537490035748 -0.4647231720420984 -0.075538305403973258 0.70834978501703971 0.76389131336442118 0.086365229615047875
decision_type=2 2 2 2 2 2 2 2 2 2 2 2 2 2 2 2 2 2 2 2 2 2 2 2 2 2 2 2 2 2
left_child=1 2 6 -3 11 8 15 -7 -5 24 -11 28 17 22 -12 -1 27 23 -15 -18 -16 -20 -8 -13 26 -26 -6 -14 -4 -24
right_child=-2 3 4 5 9 7 13 -9 -10 10 14 12 16 18 20 -17 19 -19 21 -21 -22 -23 29 -25 25 -27 -28 -29 -30 -31
leaf_value=-0.00334843375121311 1.2660718821562256 0.3437068519138155 0.01440226010147751 0.07780223843597231 0.045132996141910554 0.14634456095241366 0.0013172365037462442 0.25147433181603751 0.15286612556530879 0.12412277421225673 0.051944103837013249 0.053941046006300231 0.026569465833770879 0.0079895180803946572 0.073383854126388384 -0.0010773541099451205 0.052317360587991205 0.067285397211806139 0.032641522612037337 0.030167292368261975 0.10113844445773534 0.014614792626253892 0.0037551004152820977 0.032216768732249011 0.028879407762239379 0.057328092306852346 0.072152301941865268 0.016320445222046339 0.02357624102910252 0.007930769955119054
leaf_weight=26705 26 21 187 21 22 21 958 30 26 23 27 22 85 312 22 3900 26 26 29 54 21 182 590 41 24 22 21 99 69 366
leaf_count=26705 26 21 187 21 22 21 958 30 26 23 27 22 85 312 22 3900 26 26 29 54 21 182 590 41 24 22 21 99 69 366
internal_value=0 -0.000877713 -0.00157372 0.197006 0.0352699 0.16557 -0.00245573 0.208186 0.119327 0.0684512 0.0859749 0.0253537 0.0315026 0.00512077 0.0734406 -0.00305903 0.0259978 0.0478316 0.011662 0.0373661 0.0869384 0.0170924 0.00333338 0.039803 0.0501399 0.0424853 0.0583285 0.021055 0.0168749 0.00535374
internal_weight=0 33952 33833 119 791 98 33042 51 47 182 93 609 353 2437 70 30605 264 89 523 80 43 211 1914 63 89 46 43 184 256 956
internal_count=33978 33952 33833 119 791 98 33042 51 47 182 93 609 353 2437 70 30605 264 89 523 80 43 211 1914 63 89 46 43 184 256 956
is_linear=0
shrinkage=0.05


Tree=4
num_leaves=31
num_cat=0
split_feature=9 9 9 9 6 9 9 2 9 9 2 9 9 9 2 6 6 6 4 6 4 11 6 2 9 9 0 11 4 4
split_gain=15865.2 1787.45 419.091 222.46 131.407 94.9253 51.301 32.7971 25.304 15.7175 16.8391 13.9218 8.19429 5.97036 5.2199 4.64106 4.57157 3.38108 2.62414 2.42833 2.39651 2.21053 1.4931 1.47766 1.27138 1.1972 1.04671 1.00636 1.8583 1.02577
threshold=13.079105578804745 2.4968978413474838 0.36317921999895858 5.3281783196753354 1.0000000180025095e-35 1.166563154352857 0.039234085178838286 0.12446551846323363 3.3845075107546134 1.6244056115652934 0.87489974538058979 0.76487118717590763 -0.055789821035063636 0.194727749892496 0.029583949777842615 1.0000000180025095e-35 0.25000000000000017 1.0000000180025095e-35 0.69913850004152578 1.0000000180025095e-35 0.76045706708641181 0.56255703777457489 1.0000000180025095e-35 0.2937333675199309 -0.012597136392380951 0.99379241578212574 201601.50000000003 0.56255703777457489 0.66993209011642019 0.69575836839972005
decision_type=2 2 2 2 2 2 2 2 2 2 2 2 2 2 2 2 2 2 2 2 2 2 2 2 2 2 2 2 2 2
left_child=1 2 6 7 -5 11 12 -3 -9 17 14 16 -1 22 -11 25 -4 -7 -19 -15 21 -17 -8 -18 -14 -13 -24 28 -25 -29
right_child=-2 3 5 4 -6 9 13 8 -10 10 -12 15 24 19 -16 20 23 18 -20 -21 -22 -23 26 27 -26 -27 -28 29 -30 -31
leaf_value=-0.0031896577860215675 1.2591938591003418 0.099215635955333725 0.016873370661904846 0.19631909213282847 0.37118013217335655 0.039564196553288238 0.0022949610436318146 0.13447946693216051 0.20708572410401846 0.051934343283729895 0.11800669687597648 0.022940888582747811 -0.0013329020746965274 0.0067768851939998325 0.080718988076680237 0.03928411952578105 0.016019556164741516 0.073705448508262647 0.050618058920372279 0.013894672710880004 0.034211483485016389 0.05865137053324896 0.0073883258395280559 0.03148278603091454 0.00063419803081200712 0.035495961096978959 0.0034257452418362403 0.025281750396467174 0.014019929781556129 0.037658914297502094
leaf_weight=27304 25 30 317 22 21 36 614 28 21 28 23 49 2746 223 36 26 25 20 32 259 38 34 390 39 1172 31 291 26 25 47
leaf_count=27304 25 30 317 22 21 36 614 28 21 28 23 49 2746 223 36 26 25 20 32 259 38 34 390 39 1172 31 291 26 25 47
internal_value=0 -0.000839925 -0.00152885 0.190201 0.281716 0.0335185 -0.00241249 0.140389 0.165596 0.0662423 0.0813126 0.0248022 -0.00288282 0.0058511 0.0681257 0.0367418 0.0203653 0.0513432 0.0594978 0.0106016 0.0440364 0.0502589 0.00408297 0.0271982 -0.000744479 0.027806 0.00569506 0.0292381 0.0246614 0.0332506
internal_weight=0 33953 33831 122 43 832 32999 79 49 175 87 657 31222 1777 64 178 479 88 52 482 98 60 1295 162 3918 80 681 137 64 73
internal_count=33978 33953 33831 122 43 832 32999 79 49 175 87 657 31222 1777 64 178 479 88 52 482 98 60 1295 162 3918 80 681 137 64 73
is_linear=0
shrinkage=0.05


Tree=5
num_leaves=31
num_cat=0
split_feature=1 0 0 1 4 5 4 4 0 4 5 0 1 8 4 5 3 1 4 8 4 0 4 0 4 5 1 8 0 2
split_gain=831.061 7089.4 355.436 140.849 147.746 200.5 190.02 55.6402 34.6414 45.6461 40.8734 46.6802 42.3754 28.5666 27.8164 25.7054 27.8022 16.6453 16.3214 15.7028 11.5306 11.0228 13.3892 17.6908 10.8368 10.9773 15.0924 8.18808 7.65858 12.1157
threshold=1.4663677866533888 201218.50000000003 201250.50000000003 0.10256885482289164 0.65179911508921817 0.68301270189221941 0.63901772626530084 0.58458783278551996 201517.50000000003 0.72651063028195562 0.68301270189221941 201312.50000000003 2.9206108956400691 -0.66312265824314853 0.86018319220329342 0.25000000000000011 -0.081969662112842109 -0.20411586486277286 0.81287890646482719 0.35460488704227539 0.69345477741420636 201312.50000000003 0.70630437116498102 201304.50000000003 0.64776112552897569 -0.24999999999999994 -0.0050990369520890677 -0.23931566428756582 201613.50000000003 0.732995855275277
decision_type=2 2 2 2 2 2 2 2 2 2 2 2 2 2 2 2 2 2 2 2 2 2 2 2 2 2 2 2 2 2
left_child=3 -2 -3 17 5 15 7 -7 9 10 -4 12 -12 -9 19 -5 -17 -1 -10 -11 -13 22 23 -6 25 -19 -27 -18 29 -28
right_child=1 2 8 4 21 6 -8 13 18 14 11 20 -14 -15 -16 16 27 24 -20 -21 -22 -23 -24 -25 -26 26 28 -29 -30 -31
leaf_value=-0.003134773215682834 0.93247269250621856 0.2236737542357084 0.0093739882862705383 0.005637849474943982 0.015490634540195891 0.013551240431144834 0.1926995513359866 0.04837403953160075 0.0061225221582703188 0.01341288005961111 0.059193599893225604 0.022706020929801621 0.15625751960006629 0.11196274449619906 0.065189629729701992 0.081930550184100878 0.000159384541470429 -0.0007655602741960788 0.043359575318754652 0.056933699721544564 0.064172556442208581 0.0021319530850879911 0.0067658621150642907 0.066981338754042316 -0.0017676852485097837 0.0034448403751819222 0.049919149326728432 0.041745181628502909 0.005337724236818284 0.010990811633662535
leaf_weight=19986 22 22 42 261 69 50 31 33 366 358 23 38 22 38 31 25 29 1887 32 22 30 1642 416 22 7020 1260 41 20 46 39
leaf_count=19986 22 22 42 261 69 50 31 33 366 358 23 38 22 38 31 25 29 1887 32 22 30 1642 416 22 7020 1260 41 20 46 39
internal_value=0 0.0447615 0.0249546 -0.00132842 0.00975689 0.0346231 0.0822512 0.0539545 0.0204195 0.0283676 0.0514892 0.0671427 0.106647 0.0824074 0.0196478 0.0130127 0.0390242 -0.00229347 0.00911646 0.0159325 0.0410001 0.00412178 0.0105662 0.0279389 -0.000659905 0.00171609 0.00509478 0.0171332 0.0215941 0.0309416
internal_weight=0 1008 986 32915 2636 487 152 121 964 566 155 113 45 71 411 335 74 30279 398 380 68 2149 507 91 10293 3273 1386 49 126 80
internal_count=33923 1008 986 32915 2636 487 152 121 964 566 155 113 45 71 411 335 74 30279 398 380 68 2149 507 91 10293 3273 1386 49 126 80
is_linear=0
shrinkage=0.05


Tree=6
num_leaves=31
num_cat=0
split_feature=9 9 9 9 8 9 9 2 9 10 12 9 11 9 9 2 2 1 1 0 7 9 9 8 2 0 1 1 11 9
split_gain=16124.8 1350.32 335.251 226.137 104.66 36.844 34.8607 31.3597 29.1767 10.7558 8.23103 5.29369 5.02378 4.56238 4.33227 4.31876 3.73188 3.45294 3.16722 3.47351 4.32999 2.66296 1.81068 1.63093 1.50863 1.27149 1.05729 1.01135 0.948927 0.931609
threshold=13.079105578804745 1.6244056115652934 4.8055468354988742 0.31566726689200758 -0.56806474672964336 0.76487118717590763 0.017637742857496936 -0.025263299909360746 2.6027199187220567 1.6873982045896816 2.1914994728485109 0.091065306750057515 0.62274113788397467 -0.047151284106527101 2.2938922235268753 0.020444042450282484 0.029583949777842615 1.727731247010921 2.3815099988872306 201611.50000000003 0.8229838658938099 1.166563154352857 0.45820312621286047 -0.74851074817081309 0.54990388062574624 201310.50000000003 0.36911093696577374 1.2728700437643514 1.1049441806209666 0.5834619116766403
decision_type=2 2 2 2 2 2 2 2 2 2 2 2 2 2 2 2 2 2 2 2 2 2 2 2 2 2 2 2 2 2
left_child=1 3 7 6 -4 15 13 14 9 -9 16 -8 -11 -1 -3 23 26 22 19 20 21 -18 -17 -5 -13 -24 -7 -26 -19 -25
right_child=-2 2 4 5 -6 10 11 8 -10 12 -12 24 -14 -15 -16 17 18 28 -20 -21 -22 -23 25 29 27 -27 -28 -29 -30 -31
leaf_value=-0.002876581859325988 1.3234839638938076 0.045788673544302584 0.18214204808076223 0.0039381747425068173 0.33701192885637288 0.034877740735969241 0.0014462904309083596 0.11805042698979379 0.14808999278715679 0.057970553957857197 0.070559688434004786 0.0049820622570432363 0.092985436604136523 -0.00072401401898804154 0.075936101033137401 0.018871792747954572 0.036991443224251269 0.010571357935520571 0.031282387638710579 0.031221402051119968 0.070945553836368386 0.058648877827958627 0.033871512382509232 0.011358306074463247 0.010817451222861535 0.023781319632525406 0.022764313641155876 0.0056987588960999772 0.02005306219782781 0.021179428293059271
leaf_weight=28094 23 22 24 60 20 31 1028 24 35 20 20 644 21 2698 26 124 40 92 53 29 21 22 47 90 253 93 43 156 37 33
leaf_count=28094 23 22 24 60 20 31 1028 24 35 20 20 644 21 2698 26 124 40 92 53 29 21 22 47 90 253 93 43 156 37 33
internal_value=0 -0.000858851 0.131364 -0.00161199 0.252537 0.024084 -0.00226469 0.0953389 0.111285 0.0914664 0.0397469 0.00399859 0.075905 -0.00268797 0.0621185 0.0170412 0.0371684 0.0199956 0.0413526 0.0461179 0.0513228 0.0446763 0.0232717 0.0106965 0.00649028 0.0271687 0.0278389 0.00886509 0.0132909 0.0139932
internal_weight=0 33900 192 33708 44 835 32873 148 100 65 259 2081 41 30792 48 576 239 393 165 112 83 62 264 183 1053 140 74 409 129 123
internal_count=33923 33900 192 33708 44 835 32873 148 100 65 259 2081 41 30792 48 576 239 393 165 112 83 62 264 183 1053 140 74 409 129 123
is_linear=0
shrinkage=0.05


Tree=7
num_leaves=31
num_cat=0
split_feature=9 9 9 9 8 9 9 2 9 6 1 1 7 9 6 9 1 9 9 6 7 9 9 1 4 9 6 1 3 9
split_gain=14552.6 1218.67 302.564 204.089 95.2475 33.2517 31.5509 28.3021 26.332 8.96195 8.3912 7.4494 10.3313 6.15195 4.14099 3.90987 3.60501 3.09366 2.95145 2.71707 1.81894 1.48416 1.35791 1.15585 1.02865 0.958348 0.890119 0.806624 0.761851 0.76059
threshold=13.079105578804745 1.6244056115652934 4.8055468354988742 0.31566726689200758 -0.56806474673086049 0.76487118717590763 1.0000000180025095e-35 -0.025263299909360746 2.6027199187220567 1.0000000180025095e-35 1.2728700437643514 2.3815099988872306 0.8229838658938099 0.091065306750057515 -0.24999999999999994 2.2938922235268753 2.0188801456548724 -0.060109089499331907 1.0888163219960278 0.25000000000000017 0.88545602565225212 0.4150104415701778 0.6244949620871888 1.4663677866533888 0.76124996508256859 1.0369851004248087 0.25000000000000017 1.4663677866533888 0.06542473583011664 0.17313140757115467
decision_type=2 2 2 2 2 2 2 2 2 2 2 2 2 2 2 2 2 2 2 2 2 2 2 2 2 2 2 2 2 2
left_child=1 3 7 6 -4 14 17 15 10 23 -9 12 18 26 22 -3 20 -1 28 -15 21 -16 27 25 -13 -7 -8 -5 -11 -21
right_child=-2 2 4 5 -6 9 13 8 -10 11 -12 24 -14 19 16 -17 -18 -19 -20 29 -22 -23 -24 -25 -26 -27 -28 -29 -30 -31
leaf_value=-0.0027821318428822741 1.2573097263179396 0.043499240109866319 0.15932430885732174 0.011114001329467223 0.30706580728292465 0.024793381098767414 0.00017877470176289238 0.10820561156228736 0.14068549528717997 0.042208702675998216 0.071749953464850011 0.040499715823680164 0.08108053516883118 0.0042690496081971875 0.014573638360568528 0.072139295821006477 0.01231628269212264 -0.0012379290264184957 0.056474019453993864 0.0072788739173887049 0.032025077388000985 0.024272492301000769 0.018434961552859522 0.020017701564356685 0.026425427671622589 0.036664926436017542 0.0027610653012925812 0.0035636785068608665 0.028407881939783691 0.011771286203535663
leaf_weight=26695 23 22 20 143 24 34 904 27 35 20 38 20 26 676 59 26 109 3692 28 185 48 119 51 40 37 34 529 47 20 192
leaf_count=26695 23 22 20 143 24 34 904 27 35 20 38 20 26 676 59 26 109 3692 28 185 48 119 51 40 37 34 529 47 20 192
internal_value=0 -0.000815909 0.124795 -0.00153139 0.239911 0.0228798 -0.00215145 0.0905719 0.10572 0.0377596 0.0868931 0.0456254 0.0542734 0.00326419 0.0161891 0.0590126 0.0197849 -0.00259451 0.0440236 0.00616577 0.0233871 0.0210577 0.0111908 0.0267619 0.0313638 0.0307292 0.00113204 0.00924629 0.0353083 0.00956679
internal_weight=0 33900 192 33708 44 835 32873 148 100 259 65 151 94 2486 576 48 335 30387 68 1053 226 178 241 108 57 68 1433 190 40 377
internal_count=33923 33900 192 33708 44 835 32873 148 100 259 65 151 94 2486 576 48 335 30387 68 1053 226 178 241 108 57 68 1433 190 40 377
is_linear=0
shrinkage=0.05


Tree=8
num_leaves=31
num_cat=0
split_feature=9 9 9 9 9 9 7 4 6 9 6 0 9 5 6 4 6 9 9 9 8 9 8 12 0 7 11 10 0 9
split_gain=13133.7 1099.85 274.327 184.267 30.8594 27.5122 26.6379 23.1963 10.9385 13.0733 8.08816 5.73599 5.61638 4.58014 3.29664 3.19506 3.10808 2.1593 1.95417 1.62278 1.26256 1.17533 1.16251 1.17615 0.987023 1.02121 0.967858 0.967572 0.865021 0.85429
threshold=13.079105578804745 1.6244056115652934 5.3281783196753354 0.33726360921334891 0.047872622107374828 0.76487118717590763 0.88545602565225212 0.73310789619233085 1.0000000180025095e-35 2.6027199187220567 1.0000000180025095e-35 201308.50000000003 -0.03851274717799056 0.68301270189221941 0.25000000000000017 0.63901772626530084 0.25000000000000017 0.15585433371408158 1.0888163219960278 0.59210044860517674 0.88545602565266623 0.13425799139274022 -0.88545602565298265 0.34688530549331487 201601.50000000003 0.66312265824192096 2.271596835067236 -0.073306522606141969 201551.50000000003 0.99379241578212574
decision_type=2 2 2 2 2 2 2 2 2 2 2 2 2 2 2 2 2 2 2 2 2 2 2 2 2 2 2 2 2 2
left_child=1 3 6 4 12 14 8 -8 15 -10 29 13 27 -12 22 -3 21 -18 24 -16 -21 -6 -5 -24 25 -13 -19 -1 -20 -7
right_child=-2 2 -4 5 16 10 7 -9 9 -11 11 18 -14 -15 19 -17 17 26 28 20 -22 -23 23 -25 -26 -27 -28 -29 -30 -31
leaf_value=-0.0027032842711662776 1.1944442398522213 0.067970289998958197 0.23887118128569507 0.0078572672937648851 0.0014761819687982066 0.019956420730192995 0.14783878334123512 0.078837746878465023 0.070238441822584721 0.12100948251429058 0.041896110125209975 0.043181534253415615 -9.6556214832473075e-05 0.073120142395297683 0.018529567210450702 0.042337312977761034 0.004970845952603665 0.010182128600831872 0.052214814828974866 0.036066323611885311 0.019617966194637123 0.0048402631455254008 0.01167559629790888 0.018535032576403102 0.021932129338383677 0.027394709810614589 0.021395576395194182 -0.0019405223646210925 0.038027614846148278 0.02904076790580383
leaf_weight=23770 23 31 38 83 551 43 29 21 32 21 23 21 2494 24 137 20 331 230 21 28 20 491 143 111 20 20 21 5039 22 65
leaf_count=23770 23 31 38 83 551 43 29 21 32 21 23 21 2494 24 137 20 331 230 21 28 20 491 143 111 20 20 21 5039 22 65
internal_value=0 -0.000775113 0.118556 -0.00145482 -0.00202416 0.0225489 0.0888674 0.118858 0.0744486 0.0903553 0.0358716 0.0433441 -0.00237281 0.0578403 0.0159385 0.0579181 0.00469612 0.00762293 0.036793 0.0213014 0.0292128 0.00306137 0.0129945 0.0146732 0.0310385 0.0354806 0.0111203 -0.00256987 0.0449562 0.0254239
internal_weight=0 33900 192 33708 32927 781 154 50 104 53 259 151 31303 47 522 51 1624 582 104 185 48 1042 337 254 61 41 251 28809 43 108
internal_count=33923 33900 192 33708 32927 781 154 50 104 53 259 151 31303 47 522 51 1624 582 104 185 48 1042 337 254 61 41 251 28809 43 108
is_linear=0
shrinkage=0.05


Tree=9
num_leaves=31
num_cat=0
split_feature=9 9 9 9 9 9 9 2 10 9 9 0 7 2 9 9 1 9 8 9 2 8 1 9 1 3 2 0 9 9
split_gain=11853.2 992.612 247.58 166.32 27.1329 25.8502 25.3599 16.2055 11.6752 6.62439 5.94336 5.43856 6.00529 3.64486 3.47855 2.57585 2.17145 1.86081 1.43578 1.27629 1.22346 1.21295 1.19909 1.16267 0.907902 0.872946 0.823876 0.972202 0.788152 0.767251
threshold=13.079105578804745 1.6244056115652934 5.3281783196753354 0.31566726689200758 0.71735923406895663 -0.012597136392380951 3.04328530207742 0.26272350723823851 1.6873982045896816 2.2161453911700462 0.091065306750057515 201308.50000000003 -0.23931566428708242 0.020444042450282484 1.1492860804957836 1.0369851004248087 2.0188801456548724 -0.064428357963600164 0.5163939593878849 2.0844077030098642 0.54990388062574624 -0.82298386589334205 2.3815099988872306 0.45820312621286047 1.2728700437643514 0.75737701893624931 0.029583949777842615 201609.50000000003 0.59210044860517674 0.15153506524981333
decision_type=2 2 2 2 2 2 2 2 2 2 2 2 2 2 2 2 2 2 2 2 2 2 2 2 2 2 2 2 2 2
left_child=1 3 6 5 13 17 7 19 -9 -10 -7 12 -6 21 -14 18 23 -1 -13 -3 -12 -5 26 -15 29 -20 -17 -28 -18 -22
right_child=-2 2 -4 4 11 10 -8 8 9 -11 20 15 14 16 -16 22 28 -19 25 -21 24 -23 -24 -25 -26 -27 27 -29 -30 -31
leaf_value=-0.0025295498355527753 1.1347220511540124 0.040921451151371004 0.22692762009407344 0.0014228184234816581 0.020880436245352033 0.00085977015976861299 0.11926577209662169 0.11799514266577633 0.054686760361832766 0.092237835140743615 0.0042244783822063467 0.020028535234211369 0.043510022035075563 0.01601337234439083 0.069517410229891538 0.030994439989328382 0.009085099955129447 -0.0013710303642571796 0.038342581713169982 0.057594151422381404 0.0066260025189337091 0.01068069515345726 0.025749807358918658 0.022752765507490457 0.0047212783841668847 0.023909401567652824 0.048933181166648868 0.03434008594070162 0.019809583970899918 0.012145391904120549
leaf_weight=26008 23 22 38 50 20 1813 39 22 23 24 644 79 36 129 20 25 93 3999 22 24 118 121 26 127 156 20 25 21 21 135
leaf_count=26008 23 22 38 50 20 1813 39 22 23 24 644 79 36 129 20 25 93 3999 22 24 118 121 26 127 156 20 25 21 21 135
internal_value=0 -0.000736358 0.112628 -0.00138208 0.0206549 -0.00194183 0.084424 0.0726081 0.0879333 0.0738618 0.00259503 0.0328814 0.0443989 0.0140106 0.0527984 0.0288661 0.0168007 -0.00237516 0.0239998 0.0496203 0.0055827 0.00797371 0.0349364 0.0193567 0.00772131 0.0314696 0.0383005 0.0422711 0.0110607 0.00957113
internal_weight=0 33900 192 33708 835 32873 154 115 69 47 2866 294 76 541 56 218 370 30007 121 46 1053 171 97 256 409 42 71 46 114 253
internal_count=33923 33900 192 33708 835 32873 154 115 69 47 2866 294 76 541 56 218 370 30007 121 46 1053 171 97 256 409 42 71 46 114 253
is_linear=0
shrinkage=0.05


Tree=10
num_leaves=31
num_cat=0
split_feature=9 9 9 9 7 2 9 3 9 9 9 2 9 9 2 4 9 0 1 7 0 2 1 2 0 1 11 0 1 9
split_gain=7823.2 980.261 260.107 142.275 109.617 30.2588 26.7203 19.3234 18.7629 13.0229 4.47684 4.18832 3.9535 3.31789 2.62197 3.13281 2.36899 2.30453 2.01494 1.95929 1.82834 1.46402 1.58046 1.44909 1.35363 1.04415 0.970593 1.54688 0.901787 1.07277
threshold=13.079105578804745 1.6244056115652934 4.4340897475718029 0.36317921999895858 0.74851074817261043 -0.025263299909360746 0.021957011321765207 -0.5108930902908112 0.76487118717590763 2.6027199187220567 1.166563154352857 0.2937333675199309 0.11266164907139888 -0.055789821035063636 0.24804091603952932 0.73213002221820667 2.2938922235268753 201310.50000000003 2.9206108956400691 0.35460488704180992 201222.50000000003 0.045350274738748093 2.9206108956400691 0.020444042450282484 201250.50000000003 0.95217789503467298 0.56255703777457489 201611.50000000003 1.727731247010921 0.21200482374956908
decision_type=2 2 2 2 2 2 2 2 2 2 2 2 2 2 2 2 2 2 2 2 2 2 2 2 2 2 2 2 2 2
left_child=1 3 5 6 -4 16 13 -7 11 19 21 20 -8 -1 -12 -16 -3 18 24 -9 -5 -10 26 -14 -13 -19 -23 -28 29 -25
right_child=-2 2 4 8 -6 7 12 9 10 -11 14 17 23 -15 15 -17 -18 25 -20 -21 -22 22 -24 28 -26 -27 27 -29 -30 -31
leaf_value=-0.0023751320119542027 0.94250085069374612 0.033454887970135759 0.14426605137008611 -0.0046928631895709607 0.28835194239562212 0.1222934994733695 0.0016333745519377285 0.069862450603395701 0.01950043627407913 0.10787565335631372 0.031189705116244467 0.021476235302786032 0.0035251219533150458 -0.00076369571654473435 0.0623915393921462 0.035999784683403764 0.05460054747484349 0.018623839075137909 0.011393224959134717 0.047995552846363615 0.010834514027900206 0.026979826856404543 0.021099560335278513 0.0066215798968627775 0.034763093192766353 0.01073189313391534 0.045953046282132468 0.028307416168567929 0.0048587330714186605 0.011851472437248699
leaf_weight=27276 22 26 33 21 22 33 1082 20 51 20 39 36 361 3618 22 23 27 95 22 21 195 35 38 223 41 75 27 23 208 175
leaf_count=27276 22 26 33 21 22 33 1082 20 51 20 39 36 361 3618 22 23 27 95 22 21 195 35 38 223 41 75 27 23 208 175
internal_value=0 -0.000673167 0.109143 -0.00133169 0.2019 0.0744381 -0.00181969 0.0914719 0.0203053 0.0747978 0.0311993 0.0145101 0.00370967 -0.00218642 0.0406787 0.0489024 0.0442272 0.0186738 0.0247382 0.0586623 0.00932491 0.026623 0.0295763 0.00603289 0.0285511 0.0151421 0.0333658 0.0378361 0.00752679 0.00892116
internal_weight=0 33888 202 33686 55 147 32943 94 743 61 258 485 2049 30894 84 45 53 269 99 41 216 174 123 967 77 170 85 50 606 398
internal_count=33910 33888 202 33686 55 147 32943 94 743 61 258 485 2049 30894 84 45 53 269 99 41 216 174 123 967 77 170 85 50 606 398
is_linear=0
shrinkage=0.05


Tree=11
num_leaves=31
num_cat=0
split_feature=9 9 9 9 9 9 9 6 3 5 1 6 1 9 7 6 5 9 6 9 7 1 1 7 9 12 10 12 0 8
split_gain=7060.44 884.685 237.231 128.42 63.1014 22.2655 18.8998 18.2895 17.9788 5.77903 15.0707 5.03969 5.09397 4.57254 3.64911 3.41841 2.9701 2.38656 1.90339 1.85274 1.81006 1.64012 1.53471 1.51753 1.35556 1.14598 1.08724 0.984924 0.945157 0.935169
threshold=13.079105578804745 1.6244056115652934 6.9738196045615455 0.32862507228481236 4.4340897475718029 -0.0039585994638444118 0.76487118717590763 0.25000000000000017 -0.5108930902908112 0.25000000000000011 0.71017320525011618 1.0000000180025095e-35 2.9206108956400691 0.10402311214286232 0.88545602565266845 0.25000000000000017 0.93301270189221952 1.1492860804957836 0.25000000000000017 -0.060109089499331907 0.99270887409794961 2.3815099988872306 1.727731247010921 0.46472317204633684 0.4236489784987143 0.1022589448813446 0.86314672690732308 1.4191408652510804 201601.50000000003 0.82298386589474803
decision_type=2 2 2 2 2 2 2 2 2 2 2 2 2 2 2 2 2 2 2 2 2 2 2 2 2 2 2 2 2 2
left_child=1 3 4 5 7 19 15 9 -9 -3 -11 -8 14 -7 17 21 -12 29 -15 -1 22 24 25 -23 -5 -17 -14 -26 -20 -13
right_child=-2 2 -4 6 -6 13 11 8 -10 10 16 12 26 18 -16 20 -18 -19 28 -21 -22 23 -24 -25 27 -27 -28 -29 -30 -31
leaf_value=-0.0022708838927942556 0.89537580636414615 0.035848775344050447 0.2586763467301022 0.0065472099528973288 0.14722475013272329 0.0010714865227872416 0.02120375837775923 0.13027499750966118 0.070356364500138074 0.10152361862361432 0.039809252630020012 0.037458097639804087 0.014904361077060458 0.0037552828973048597 0.059984296086159621 0.013284948089276442 0.063869194151914652 0.048370447549326671 0.010610658092045925 -0.0010536679396436687 0.032666460708493279 -0.0058455447107553481 0.0091100763868201869 0.0085897400742396719 0.012895164052473316 0.02378917755559087 0.029407116451433731 0.022124730651932104 0.0053399891893432883 0.023771111144182774
leaf_weight=26745 22 23 22 73 33 1625 105 21 31 20 29 24 24 625 22 40 23 29 200 3540 21 25 44 67 166 74 28 35 148 26
leaf_count=26745 22 23 22 73 33 1625 105 21 31 20 29 24 24 625 22 40 23 29 200 3540 21 25 44 67 166 74 28 35 148 26
internal_value=0 -0.000639509 0.103686 -0.0012651 0.0847427 -0.00174753 0.0184905 0.0707162 0.0945543 0.0576679 0.0646379 0.0296393 0.0354284 0.00269464 0.0419747 0.0132127 0.0504511 0.0369593 0.00540545 -0.0021286 0.0188751 0.0104434 0.017042 0.00466711 0.0123829 0.0201035 0.0227135 0.0145023 0.00836911 0.0303409
internal_weight=0 33888 202 33686 180 32883 803 147 52 95 72 258 153 2598 101 545 52 79 973 30285 179 366 158 92 274 114 52 201 348 50
internal_count=33910 33888 202 33686 180 32883 803 147 52 95 72 258 153 2598 101 545 52 79 973 30285 179 366 158 92 274 114 52 201 348 50
is_linear=0
shrinkage=0.05


Tree=12
num_leaves=31
num_cat=0
split_feature=9 9 9 9 9 8 4 12 9 9 6 6 9 9 1 1 6 6 0 9 1 1 0 1 6 4 7 9 7 1
split_gain=6372.05 802.793 194.905 137.933 42.7693 39.7649 42.0849 52.7193 26.5763 5.8346 5.72083 5.24321 4.98556 4.76865 3.56634 2.9409 2.4496 1.77155 1.76873 1.26166 1.23286 1.1913 1.17827 1.17197 1.13693 1.08515 1.63538 1.07199 1.01553 0.975248
threshold=13.079105578804745 2.6027199187220567 0.6244949620871888 6.9738196045615455 0.091065306750057515 -0.82298386589334205 0.74628938429442981 0.17800125250678678 1.5250624368871233 -0.03851274717799056 -0.24999999999999994 1.0000000180025095e-35 1.166563154352857 0.3674984884632268 0.61438279250366346 1.727731247010921 1.0000000180025095e-35 1.0000000180025095e-35 201308.50000000003 0.21200482374956908 0.139691624408641 1.727731247010921 201306.50000000003 0.087692167796905474 1.0000000180025095e-35 0.65617889843961219 0.7485107481707054 2.0412150183671813 0.9709418174262282 1.0901655525994653
decision_type=2 2 2 2 2 2 2 2 2 2 2 2 2 2 2 2 2 2 2 2 2 2 2 2 2 2 2 2 2 2
left_child=1 2 4 5 9 -3 7 -7 10 -1 23 27 18 17 -13 16 -15 -6 -12 28 -20 -14 -17 -4 -11 -18 -27 -10 -19 -21
right_child=-2 3 8 -5 13 6 -8 -9 11 24 12 14 21 15 -16 22 25 19 20 29 -22 -23 -24 -25 -26 26 -28 -29 -30 -31
leaf_value=-0.0020985918681319712 0.85060703029686757 0.045785118000847953 0.026345202879359327 0.24574252678589389 0.0029864557615735237 0.092113544223830113 0.069478849437006787 0.20102565968036654 0.035081553757190707 -0.00079736728838710694 0.035020067309960726 0.081808724827133125 0.053144518082792115 0.0097564141414670097 0.055051107253089093 -0.0063757124589756131 0.014103936502643983 0.0044280184784833559 0.033748092417689883 0.012743939990157549 0.020625477728021716 0.037335563006882483 0.0071280537915992597 0.015258183231143731 0.0011666304515801102 0.017530021492553793 0.032856320456734728 0.050405291929131457 0.013129100266126665 0.0060378906947012338
leaf_weight=28858 22 21 30 22 523 20 23 25 25 1403 42 20 22 136 33 20 56 358 22 130 96 26 84 116 1552 46 28 21 37 93
leaf_count=28858 22 21 30 22 523 20 23 25 25 1403 42 20 22 136 33 20 56 358 22 130 96 26 84 116 1552 46 28 21 37 93
internal_value=0 -0.000607533 -0.0010487 0.133637 -0.00149153 0.105926 0.124499 0.15262 0.0315275 -0.00188191 0.025123 0.0544284 0.0304483 0.00672763 0.0651483 0.0116603 0.0144476 0.0051281 0.0262084 0.00694052 0.0230721 0.0445813 0.00453118 0.0175363 0.000234147 0.0193552 0.0233292 0.0420772 0.00524306 0.00994725
internal_weight=0 33888 33777 111 33324 89 68 45 453 31813 354 99 208 1511 53 370 266 1141 160 618 118 48 104 146 2955 130 74 46 395 223
internal_count=33910 33888 33777 111 33324 89 68 45 453 31813 354 99 208 1511 53 370 266 1141 160 618 118 48 104 146 2955 130 74 46 395 223
is_linear=0
shrinkage=0.05


Tree=13
num_leaves=31
num_cat=0
split_feature=9 9 9 9 9 6 9 9 2 9 9 9 6 2 2 6 6 0 4 8 0 9 6 10 4 9 0 0 3 10
split_gain=5750.77 724.521 175.902 124.484 38.5993 37.2138 24.0423 20.1379 8.67704 5.27945 5.13421 4.30371 3.10746 2.80122 2.74473 2.40685 1.61603 1.59628 1.47488 1.21552 1.02127 0.968923 0.925288 0.888088 0.850258 0.726232 0.682046 0.592593 0.562617 0.557617
threshold=13.079105578804745 2.6027199187220567 0.6244949620871888 6.9738196045615455 0.091065306750057515 0.25000000000000017 1.6244056115652934 4.4340897475718029 0.714192932829116 -0.029874210249454025 1.166563154352857 0.3674984884632268 1.0000000180025095e-35 -0.21994310650935325 0.054894163610991108 -0.24999999999999994 0.25000000000000017 201308.50000000003 0.73213002221820667 -0.74851074817124374 201308.50000000003 0.21200482374956908 1.0000000180025095e-35 -0.064675617080672251 0.63441940747489511 0.99379241578212574 201316.50000000003 201601.50000000003 -0.53753540269342925 0.69052861639792862
decision_type=2 2 2 2 2 2 2 2 2 2 2 2 2 2 2 2 2 2 2 2 2 2 2 2 2 2 2 2 2 2
left_child=1 2 4 5 9 7 10 -3 13 23 15 16 -12 -8 19 25 -6 29 -14 26 28 -18 -11 -1 -19 -4 -13 -23 -16 -17
right_child=-2 3 6 -5 11 -7 8 -9 -10 22 12 14 18 -15 20 17 21 24 -20 -21 -22 27 -24 -25 -26 -27 -28 -29 -30 -31
leaf_value=-0.0020754071517861484 0.80807665613564572 0.058876235229082599 0.013348631707920725 0.23345540003343063 0.0034597669825782527 0.15705230181867427 0.031023964360356333 0.11445424695100104 0.074405214683182772 -0.00059871044482064496 0.02305318068176734 -0.0080544405430555341 0.049573948330456218 0.052631131807963055 0.014724937956114965 0.039030269746269497 0.0055487136064605608 0.030784483186223288 0.032158368602395064 0.0088645537663251169 0.012408079710820499 0.013151771380152139 0.0013343098770923943 -0.0012190224548852661 0.019886667581037423 0.022686467830229692 0.004127852280658705 0.0067042282478631298 0.024361131848259408 0.02750785823501203
leaf_weight=25900 22 39 91 22 730 22 30 28 31 1169 33 20 31 30 28 21 262 22 20 90 172 90 1316 3428 96 27 27 59 33 21
leaf_count=25900 22 39 91 22 730 22 30 28 31 1169 33 20 31 30 28 21 262 22 20 90 172 90 1316 3428 96 27 27 59 33 21
internal_value=0 -0.000577157 -0.000996262 0.126956 -0.00141696 0.10063 0.0299511 0.0821029 0.0529254 -0.00178782 0.0241758 0.00639125 0.0350085 0.0418275 0.0110772 0.0209027 0.00487169 0.024898 0.0427443 0.00546112 0.0143794 0.00737949 0.000424974 -0.00197531 0.0219185 0.0154853 -0.0010561 0.0105987 0.019938 0.0332691
internal_weight=0 33888 33777 111 33324 89 453 67 91 31813 362 1511 84 60 370 278 1141 160 51 137 233 411 2485 29328 118 118 47 149 61 42
internal_count=33910 33888 33777 111 33324 89 453 67 91 31813 362 1511 84 60 370 278 1141 160 51 137 233 411 2485 29328 118 118 47 149 61 42
is_linear=0
shrinkage=0.05


Tree=14
num_leaves=31
num_cat=0
split_feature=9 9 9 9 2 9 1 9 2 9 9 9 2 6 2 6 1 1 0 4 0 6 4 0 1 2 9 6 6 9
split_gain=5190.07 653.88 158.752 112.347 35.0801 34.8359 25.6043 21.6981 7.83103 4.77698 4.63363 3.89973 3.0382 2.80449 2.5281 2.17218 2.1585 1.55794 1.52856 1.33108 1.30864 1.29118 1.23489 1.54851 1.12001 1.02177 0.907294 0.86366 0.843491 0.752647
threshold=13.079105578804745 2.6027199187220567 0.6244949620871888 6.9738196045615455 0.12446551846323363 0.091065306750057515 3.7185376184109042 1.6244056115652934 0.714192932829116 -0.025554941785185754 1.166563154352857 0.3113479984277393 0.020444042450282484 1.0000000180025095e-35 -0.21994310650935325 -0.24999999999999994 1.727731247010921 4.8845027629868829 201308.50000000003 0.73213002221820667 201224.50000000003 0.25000000000000017 0.65617889843961219 201513.50000000003 1.4663677866533888 0.64971084248979771 -0.077386163356404983 -0.5 0.25000000000000017 0.76487118717590763
decision_type=2 2 2 2 2 2 2 2 2 2 2 2 2 2 2 2 2 2 2 2 2 2 2 2 2 2 2 2 2 2
left_child=1 2 5 4 -3 9 -6 10 14 26 15 21 20 -12 -9 24 22 18 -17 -15 -13 -7 -14 25 27 -24 -1 -4 -11 -20
right_child=-2 3 7 -5 6 11 -8 8 -10 28 13 12 16 19 -16 17 -18 -19 29 -21 -22 -23 23 -25 -26 -27 -28 -29 -30 -31
leaf_value=-0.0020315925405290595 0.76767285086891868 0.059231919354121934 0.014375665360035338 0.22178262797268955 0.15743422880768776 0.0029762042428684746 0.086565507918596268 0.029472766170899074 0.070684953974259487 -0.00025250876777365957 0.021900521744409523 -0.0065974118977623151 0.011321577780895056 0.047095250578657273 0.049999575341741244 0.035597820557428127 0.0066664816590609275 0.014812652361395427 0.017008987991985951 0.030550450105220079 0.0061942330383531309 0.0066573853803113692 0.016234174534759446 0.013037051824669885 0.00815827390622525 0.029586445003453837 -0.0013969942434405404 0.025512666620866015 0.001724268990586279 0.026528392269808267
leaf_weight=21954 22 38 49 22 26 650 25 30 31 1408 33 23 93 31 30 33 99 38 33 20 153 376 23 56 42 38 7576 27 875 56
leaf_count=21954 22 38 49 22 26 650 25 30 31 1408 33 23 93 31 30 33 99 38 33 20 153 376 23 56 42 38 7576 27 875 56
internal_value=0 -0.000548299 -0.000946449 0.120608 0.0955982 -0.00134611 0.122695 0.0284536 0.0502792 -0.00169843 0.022967 0.00607169 0.00976621 0.0332581 0.0397362 0.0198575 0.0127529 0.0236531 0.0264067 0.0406071 0.0045226 0.00432525 0.0156222 0.0190406 0.014711 0.024552 -0.00186878 0.0183322 0.000505126 0.0229987
internal_weight=0 33888 33777 111 89 33324 51 453 91 31813 362 1511 485 84 60 278 309 160 122 51 176 1026 210 117 118 61 29530 76 2283 89
internal_count=33910 33888 33777 111 89 33324 51 453 91 31813 362 1511 485 84 60 278 309 160 122 51 176 1026 210 117 118 61 29530 76 2283 89
is_linear=0
shrinkage=0.05


Tree=15
num_leaves=31
num_cat=0
split_feature=1 4 1 4 5 4 7 8 11 4 5 6 3 4 7 4 5 1 3 3 1 3 3 1 4 4 11 7 5 4
split_gain=369.843 3586.24 47.5625 40.707 85.4524 63.4214 51.353 101.256 19.2414 14.448 24.919 26.6042 26.3894 17.5977 14.2746 11.8264 7.83391 7.35458 6.7244 6.05089 4.81106 4.27855 3.37757 3.05921 2.77421 2.69405 4.91639 7.99511 2.52554 2.45466
threshold=1.4663677866533888 0.60215748674482261 0.022399398118039281 0.65179911508921817 0.68301270189221941 0.58270376915215294 0.56806474672990737 -0.12053668025298804 1.092621349203218 0.72651063028195562 0.68301270189221941 1.0000000180025095e-35 0.58470913323096829 0.81908102923966031 0.12053668025633409 0.69241331676131523 0.25000000000000011 2.9206108956400691 -0.25528934051670554 0.039590136942025893 -0.20614227443443189 -1.5825943303529173 -0.37313798718407948 0.71017320525011618 0.63752351241467486 0.70419884142295819 0.62274113788397467 0.88545602565389403 -0.24999999999999994 0.55836429532795739
decision_type=2 2 2 2 2 2 2 2 2 2 2 2 2 2 2 2 2 2 2 2 2 2 2 2 2 2 2 2 2 2
left_child=2 -2 20 4 16 -6 14 -8 -9 10 -3 -12 15 21 -7 18 23 -15 -13 22 -1 -11 -18 -4 28 26 -5 -28 -22 -30
right_child=1 9 3 25 5 6 7 8 -10 13 11 12 -14 17 -16 -17 19 -19 -20 -21 24 -23 -24 -25 -26 -27 27 -29 29 -31
leaf_value=-0.001910724211997739 0.53481263024390069 0.0035800983681514085 0.0014947410751539373 0.0020814299064570107 0.0049240267466908946 0.054088796162046496 0.15241777233912479 0.0066878334978473898 0.073744822335429491 0.026286894798278809 0.0058533182304129202 0.071746128462255004 0.012079144224262565 0.013437250680290164 0.0029320238033930463 0.094072859216895371 0.016072041437118538 0.046015337428714082 0.030744918552227319 0.0064899037227135253 -0.000440195134639767 0.0051853401367755458 0.044430156375858045 -0.01548282109393642 -0.0011052583534978653 0.001311105852628543 0.0065712989819335897 0.032848557855027757 -0.00054536310121238568 0.0042947742800057238
leaf_weight=19739 34 101 312 385 72 25 35 23 20 25 49 20 30 30 30 27 21 41 20 74 1788 614 21 29 6853 2205 133 37 407 735
leaf_count=19739 34 101 312 385 72 25 35 23 20 25 49 20 30 30 30 27 21 41 20 74 1788 614 21 29 6853 2205 133 37 407 735
internal_value=0 0.0301866 -0.000814551 0.00476561 0.0159006 0.0427222 0.0631844 0.0892736 0.0378771 0.0122584 0.0226744 0.0358834 0.0510532 0.00863481 0.0261851 0.0685043 0.00386905 0.0322499 0.0512455 0.0150931 -0.00146137 0.00601091 0.0302511 5.09015e-05 -0.000554708 0.00209483 0.00520852 0.0122905 0.000732979 0.00256979
internal_weight=0 991 32944 3422 662 205 133 78 43 957 247 146 97 710 55 67 457 71 40 116 29522 639 42 341 9783 2760 555 170 2930 1142
internal_count=33935 991 32944 3422 662 205 133 78 43 957 247 146 97 710 55 67 457 71 40 116 29522 639 42 341 9783 2760 555 170 2930 1142
is_linear=0
shrinkage=0.05


Tree=16
num_leaves=31
num_cat=0
split_feature=10 10 6 10 8 2 10 1 10 6 4 4 6 6 10 3 10 11 10 1 1 10 1 0 1 6 4 6 0 0
split_gain=7066.02 590.371 164.796 127.938 34.7425 37.7632 28.5803 21.393 14.9517 6.65239 7.01546 6.53498 6.00654 4.8075 4.10462 3.90428 3.24019 2.37605 1.93898 1.69719 1.44079 1.44044 1.40737 2.01654 3.5878 1.38745 1.24446 1.12672 1.07695 1.05569
threshold=16.467823916956586 2.6001164639081047 0.25000000000000017 0.67758225810972406 -0.88545602565205195 -0.14394854503075694 0.086365229615047875 3.7185376184109042 1.5234109996057568 1.0000000180025095e-35 0.68000013791126823 0.61301441407238244 1.0000000180025095e-35 0.25000000000000017 -0.04309835326699795 -0.20779500247098201 0.26329879288717722 -0.4502275710431628 0.31508422603999559 3.7185376184109042 2.0188801456548724 1.2126984006888468 2.0188801456548724 201547.50000000003 0.36911093696577374 1.0000000180025095e-35 0.72367330626062598 -0.68301270189221952 201813.50000000003 201310.50000000003
decision_type=2 2 2 2 2 2 2 2 2 2 2 2 2 2 2 2 2 2 2 2 2 2 2 2 2 2 2 2 2 2
left_child=1 3 4 6 -3 -6 14 -7 9 21 11 -11 27 18 -1 -14 -15 -12 -8 26 -20 28 23 24 -18 -16 -19 -10 -5 -27
right_child=-2 2 -4 8 5 7 13 -9 12 10 17 -13 15 16 25 -17 22 19 20 -21 -22 -23 -24 -25 -26 29 -28 -29 -30 -31
leaf_value=-0.0017347943910949962 0.91696780153683255 0.029980299827786019 0.22130333609305897 0.0086108755888315014 0.043734099140221423 0.16064115876243229 0.0020230464668904618 0.092789805787973689 0.022982175356667977 0.026258766259355793 0.0062687093497846612 0.060441378697201058 0.070880851991798569 0.0063295612878056934 -0.0008902239438156709 0.043295453912739097 0.015378132982137192 0.020777647886425259 0.008438488561437885 0.016203915098948137 0.0013319521872754382 0.022682270402198331 0.0075056170940171092 0.011307621771407162 0.04010780032893474 0.0037483479360105321 0.036775091572874979 0.038316529273986821 0.021425120029598475 0.00054293438281383273
leaf_weight=28550 21 26 26 91 22 21 733 26 23 29 22 27 23 307 1630 29 44 20 262 35 98 34 49 67 22 320 31 25 20 1302
leaf_count=28550 21 26 26 91 22 21 733 26 23 29 22 27 23 307 1630 29 44 20 262 35 98 34 49 67 22 320 31 25 20 1302
internal_value=0 -0.000481512 0.109765 -0.000876262 0.0792383 0.0977993 -0.00121679 0.123106 0.0269185 0.0214801 0.0283784 0.0427397 0.0437233 0.00534253 -0.00154308 0.0554967 0.00946333 0.0209318 0.00349891 0.0246828 0.00650393 0.0136779 0.0147494 0.0174182 0.0236214 0.000140008 0.0305016 0.0309688 0.0109197 0.00117532
internal_weight=0 33914 121 33793 95 69 33384 47 409 309 164 56 100 1582 31802 52 489 108 1093 86 360 145 182 133 66 3252 51 48 111 1622
internal_count=33935 33914 121 33793 95 69 33384 47 409 309 164 56 100 1582 31802 52 489 108 1093 86 360 145 182 133 66 3252 51 48 111 1622
is_linear=0
shrinkage=0.05


Tree=17
num_leaves=31
num_cat=0
split_feature=10 9 6 9 9 2 9 3 6 3 9 7 4 9 6 4 9 9 9 4 11 6 7 4 4 10 6 7 4 4
split_gain=6377.08 587.049 155.892 151.526 27.5813 26.7759 25.4362 20.6823 7.30719 5.10873 4.42082 4.28351 3.22271 2.76034 2.75352 2.49828 2.28369 1.93851 1.46767 1.11494 0.974395 0.937037 1.26441 0.86982 0.753126 0.734928 0.727067 1.24039 0.685509 1.2098
threshold=16.467823916956586 3.2246945775766869 0.25000000000000017 0.64393167017639608 1.4818697522444404 -0.074777729551046751 0.14721579678554506 0.12238875318105062 1.0000000180025095e-35 -0.5108930902908112 -0.021235673320917487 0.97094181742616426 0.64479453253854213 2.1168022164918763 1.0000000180025095e-35 0.63752351241467486 0.97651534192505274 0.45820312621286047 0.93764192574663829 0.68990456479520101 1.9531201030929743 0.25000000000000017 0.93501624268560268 0.74880032002316954 0.7274055123304638 -0.064675617080672251 0.93301270189221952 -0.1205366802538053 0.72928580955946543 0.70630437116498102
decision_type=2 2 2 2 2 2 2 2 2 2 2 2 2 2 2 2 2 2 2 2 2 2 2 2 2 2 2 2 2 2
left_child=1 3 5 6 11 -3 10 -7 12 -10 25 15 -6 -11 -8 18 -13 20 -5 -17 26 -12 -23 28 -24 -1 -16 -28 29 -21
right_child=-2 2 -4 4 8 7 14 -9 9 13 21 16 -14 -15 17 19 -18 -19 -20 23 -22 22 24 -25 -26 -27 27 -29 -30 -31
leaf_value=-0.0017131430121294416 0.87111939617565692 0.049865508228540426 0.24686614998749326 0.018834830089989638 0.0443390993962142 0.077750776535831401 0.0035599877437343559 0.14727322631718026 0.07174155349532764 0.035138789251712814 -0.00017549632347139087 0.023096506246788939 0.021528285130625591 0.057996912732720375 0.0056519523645487801 0.0060648028605750637 0.046441152431070803 0.014057607733504108 0.032717367239070663 0.023780113344080749 0.01454276277218014 0.0010375642907166566 0.002006996030520116 0.012853211399127797 0.0092765969648764181 -0.00097012052578425 0.0029345388391188217 0.019009836224306909 0.026773795299232007 0.0072814790718257437
leaf_weight=25930 21 25 21 45 30 20 515 23 30 28 1562 22 32 25 383 35 20 126 33 25 40 788 63 99 82 3818 21 28 25 20
leaf_count=25930 21 25 21 45 30 20 515 23 30 28 1562 22 32 25 383 35 20 126 33 25 40 788 63 99 82 3818 21 28 25 20
internal_value=0 -0.000457436 0.127788 -0.000794874 0.0274276 0.0910138 -0.00119169 0.114937 0.0455526 0.0552537 -0.00144823 0.019316 0.0325658 0.0459209 0.00623986 0.0170974 0.034213 0.00854777 0.0247082 0.0141873 0.00707693 0.000573386 0.00182714 0.0158695 0.00611808 -0.00161778 0.00638564 0.0121204 0.0201354 0.0164474
internal_weight=0 33914 89 33825 469 68 33356 43 145 83 32243 324 62 53 1113 282 42 598 78 204 472 2495 933 169 145 29748 432 49 70 45
internal_count=33935 33914 89 33825 469 68 33356 43 145 83 32243 324 62 53 1113 282 42 598 78 204 472 2495 933 169 145 29748 432 49 70 45
is_linear=0
shrinkage=0.05


Tree=18
num_leaves=31
num_cat=0
split_feature=9 9 9 12 9 11 1 9 9 7 10 1 6 4 4 12 11 6 9 10 9 6 1 4 7 8 4 12 8 3
split_gain=5770.7 444.846 112.864 120.403 66.1769 14.0289 23.8367 11.7728 8.82449 5.90206 3.89316 3.20064 2.87987 2.82211 2.37729 2.17368 1.98974 1.58117 1.36173 1.22682 1.08065 0.993438 0.974551 1.72462 0.945979 0.840946 0.831569 0.78576 0.672769 0.840443
threshold=13.079105578804745 1.6244056115652934 5.3281783196753354 0.49079568998165485 0.3113479984277393 1.0000000180025095e-35 0.47572670736573658 0.92036485188956518 0.017637742857496936 0.97094181742616426 2.6001164639081047 1.727731247010921 1.0000000180025095e-35 0.74628938429442981 0.6503282535827789 -0.16414713149762014 2.1921526058530585 0.25000000000000017 0.71735923406895663 -0.0603601643179374 0.15585433371408158 -0.5 1.2728700437643514 0.61451970068795936 0.23931566428477188 -0.88545602565205195 0.78915552221186192 0.044980725901943928 -0.82298386589334205 -0.45598330945525378
decision_type=2 2 2 2 2 2 2 2 2 2 2 2 2 2 2 2 2 2 2 2 2 2 2 2 2 2 2 2 2 2
left_child=1 4 5 -4 8 15 -7 11 19 14 13 12 -6 -8 24 -3 18 22 27 -1 -19 -16 -10 -24 -9 -25 28 -14 -13 -30
right_child=-2 2 3 -5 7 6 10 9 17 -11 -12 26 16 -15 21 -17 -18 20 -20 -21 -22 -23 23 25 -26 -27 -28 -29 29 -31
leaf_value=-0.0016116903812745135 0.77511955954444911 0.023409188987204323 0.069241945739835498 0.23383406169712542 0.0081587907745543226 0.10674393594264985 0.028157602826302704 0.038279436102935244 0.0016300655878049106 0.046541272977796887 0.063347408578128497 -0.0028023592550370444 0.0083064908555780474 0.053483265638351443 0.0072168140968477184 0.042411731128745217 0.029347365826601163 0.002575215867442185 0.023483246937394144 -0.00068613994314762944 0.006879677440752502 0.019182535502832474 -0.0154274824596498 -0.0054568822499114411 0.023085226758848876 0.0009656433946564531 0.011171689123439138 0.015162969730460111 -0.0012678935228345486 0.0075345221929137042
leaf_weight=26690 24 27 25 20 228 25 22 21 1020 26 34 37 65 22 22 34 25 505 35 4135 205 82 21 67 20 213 40 117 39 89
leaf_count=26690 24 27 25 20 228 25 22 21 1020 26 34 37 65 22 22 34 25 505 35 4135 205 82 21 67 20 213 40 117 39 89
internal_value=0 -0.000470699 0.0722502 0.142394 -0.000921671 0.0530034 0.0642574 0.0128859 -0.0012772 0.0246046 0.0506399 0.00991718 0.012191 0.0408204 0.0206711 0.0340008 0.01599 0.00191511 0.0144512 -0.00148753 0.00381805 0.0166513 0.000892325 -0.00160766 0.0308676 -0.000571175 0.00470393 0.0127142 0.00313598 0.00485254
internal_weight=0 33911 209 45 33702 164 103 846 32856 171 78 675 470 44 145 61 242 2031 217 30825 710 104 1321 301 41 280 205 182 165 128
internal_count=33935 33911 209 45 33702 164 103 846 32856 171 78 675 470 44 145 61 242 2031 217 30825 710 104 1321 301 41 280 205 182 165 128
is_linear=0
shrinkage=0.05


Tree=19
num_leaves=31
num_cat=0
split_feature=9 9 9 12 9 2 1 9 9 9 7 1 8 6 11 9 12 1 9 6 1 0 6 9 3 6 0 1 0 1
split_gain=5208.06 401.473 101.859 108.663 59.7247 14.7495 33.6227 10.6249 10.3681 7.98161 5.34967 2.88858 2.63744 2.59909 1.79574 1.62732 1.52541 1.47822 1.27225 1.03759 1.20381 0.973431 0.931311 0.869335 0.863238 0.801319 0.820403 0.757588 0.671552 0.645303
threshold=13.079105578804745 1.6244056115652934 5.3281783196753354 0.49079568998165485 0.3113479984277393 -0.025263299909360746 0.47572670736573658 0.92036485188956518 3.04328530207742 1.0000000180025095e-35 0.97094181742610919 1.727731247010921 -0.12053668025382605 1.0000000180025095e-35 2.1921526058530585 0.14721579678554506 -0.23669548639186891 0.36911093696577374 0.44956458928432391 1.0000000180025095e-35 2.9206108956400691 201304.50000000003 -0.24999999999999994 -0.064428357963600164 0.077776955996620267 0.25000000000000017 201601.50000000003 1.4663677866533888 201224.50000000003 0.47572670736573658
decision_type=2 2 2 2 2 2 2 2 2 2 2 2 2 2 2 2 2 2 2 2 2 2 2 2 2 2 2 2 2 2
left_child=1 4 5 -4 9 16 -7 11 12 23 17 13 -8 28 18 25 -3 24 -15 -19 -21 -13 -17 -1 -9 29 -27 -24 -6 -11
right_child=-2 2 3 -5 7 6 8 10 -10 15 -12 21 -14 14 -16 22 -18 19 -20 20 -22 -23 27 -25 -26 26 -28 -29 -30 -31
leaf_value=-0.0015423159402972199 0.73636359423398978 0.020009078887792735 0.065779850255697978 0.22214235879480837 0.0137245187897068 0.11310817065338295 0.026761046585372907 0.031610800334883317 0.077853452786803251 0.00078648102594145852 0.043798063681633387 -0.005223358546019248 0.046603824373553787 0.0088162877638263502 0.027879997976124289 0.0016470152687231478 0.036977137497591753 0.0094396707393523127 0.016712387295664047 0.027447235587585186 0.012650357278201869 0.005693554481535263 0.0072915916473160446 -0.00077696040995272079 0.018287108191289009 0.0038740529894176708 0.00032745226702724227 0.0022758928625641957 0.0065181896129004645 -0.0017715391521891382
leaf_weight=26102 24 26 25 20 39 24 33 31 20 807 27 23 34 82 25 280 27 38 135 28 27 182 218 4325 20 344 310 115 189 355
leaf_count=26102 24 26 25 20 39 24 33 31 20 807 27 23 34 82 25 280 27 38 135 28 27 182 218 4325 20 344 310 115 189 355
internal_value=0 -0.000447164 0.0686377 0.135274 -0.000875587 0.0503532 0.0607145 0.0122416 0.0462611 -0.00121334 0.0233744 0.00942132 0.0368305 0.0115815 0.0151905 0.00154485 0.0286532 0.0195449 0.0137286 0.0157934 0.0201833 0.00446873 0.00377236 -0.00143353 0.0263858 0.00079294 0.00219294 0.00555944 0.00775085 4.98605e-06
internal_weight=0 33911 209 45 33702 164 111 846 87 32856 171 675 67 470 242 2429 53 144 217 93 55 205 613 30427 51 1816 654 333 228 1162
internal_count=33935 33911 209 45 33702 164 111 846 87 32856 171 675 67 470 242 2429 53 144 217 93 55 205 613 30427 51 1816 654 333 228 1162
is_linear=0
shrinkage=0.05


Tree=20
num_leaves=31
num_cat=0
split_feature=10 10 10 2 10 1 10 11 8 4 10 6 6 0 1 6 11 1 4 0 0 4 8 0 2 10 12 0 1 0
split_gain=3279.51 260.456 53.3074 53.3273 49.9916 17.1577 11.6546 8.36088 7.09687 6.44043 6.27234 5.87835 4.08274 3.40659 2.16993 1.68982 1.63464 1.39998 1.38924 1.339 1.12813 1.44854 1.12708 1.81846 0.915759 0.914603 0.897712 0.877967 0.867466 1.12178
threshold=12.501922828003245 1.6226664131486588 3.221541661741925 0.54990388062574624 0.25035243459897266 0.53364726403608664 0.79409948270356523 0.38903331536612801 -0.46472317204719987 0.69464067382611761 -0.004259278402384211 1.0000000180025095e-35 0.25000000000000017 201308.50000000003 3.7185376184109042 0.25000000000000017 2.1921526058530585 1.2728700437643514 0.61843445917925999 201224.50000000003 201601.50000000003 0.7537609906500996 -0.4647231720423865 201603.50000000003 0.27956511763769859 -0.073306522606141969 2.1914994728485109 201310.50000000003 1.727731247010921 201342.50000000003
decision_type=2 2 2 2 2 2 2 2 2 2 2 2 2 2 2 2 2 2 2 2 2 2 2 2 2 2 2 2 2 2
left_child=1 4 7 5 10 -4 12 18 -9 -10 25 -8 17 -13 22 -12 26 19 -3 24 21 -17 -15 -24 -6 -1 28 -19 29 -14
right_child=-2 2 3 -5 6 -7 11 8 9 -11 15 13 16 14 -16 20 -18 27 -20 -21 -22 -23 23 -25 -26 -27 -28 -29 -30 -31
leaf_value=-0.0015010104576064476 0.5612860960456042 0.014021415731869638 0.083975623695757895 0.14914625155925751 0.0072507530653282345 0.023777423091232777 0.011532285669312367 0.023385269902646541 0.077230133380120011 0.040968297645449639 0.00034349410163401583 0.041246555047109723 0.019191302836961337 0.017020466433896219 0.010073927726345855 0.0029626754790180866 0.026473368847509851 -0.0080002057154408904 0.029364127184574804 0.0054503800116224447 0.0012174656658298544 0.0092776603733413631 0.041346649655505371 0.022046111194560163 0.02107518733292818 -0.00082578226088334374 0.021273740072779004 0.0026008992260326998 0.0045908155812261009 0.0093125148879742801
leaf_weight=23742 26 25 29 25 23 20 115 20 24 25 1594 32 42 20 26 291 20 22 36 297 395 132 23 26 25 6358 21 174 48 91
leaf_count=23742 26 25 29 25 23 20 115 20 24 25 1594 32 42 20 26 291 20 22 36 297 395 132 23 26 25 6358 21 174 48 91
internal_value=0 -0.000479461 0.055846 0.0897229 -0.000822284 0.0594049 0.0101608 0.0365622 0.0484846 0.0587292 -0.00116179 0.0197215 0.00712845 0.027137 0.0223842 0.00129155 0.0128381 0.00478551 0.0230761 0.00670264 0.00313898 0.00493331 0.0270229 0.0311055 0.014451 -0.00135838 0.011488 0.00141098 0.0103527 0.0124321
internal_weight=0 33721 204 74 33517 49 1005 130 69 49 32512 242 763 127 95 2412 222 541 61 345 818 423 69 49 48 30100 202 196 181 133
internal_count=33747 33721 204 74 33517 49 1005 130 69 49 32512 242 763 127 95 2412 222 541 61 345 818 423 69 49 48 30100 202 196 181 133
is_linear=0
shrinkage=0.05


Tree=21
num_leaves=31
num_cat=0
split_feature=9 9 9 7 2 9 9 11 6 7 9 1 6 4 9 9 2 1 9 9 4 7 9 10 4 10 6 7 10 10
split_gain=3310.66 317.161 103.119 64.3345 41.995 16.5025 13.7494 9.60342 6.31325 2.96642 3.08968 2.64173 2.42461 2.42288 2.25381 1.70219 1.60827 1.64793 1.57837 1.16284 1.11032 0.97327 0.885725 0.858451 0.801318 0.797127 0.665893 0.791198 0.644689 0.632836
threshold=16.724568162647167 3.6134287393608315 0.64393167017639608 0.35460488704511817 0.59441384745718151 0.11266164907139888 1.7583029339576097 0.50800188534982571 1.0000000180025095e-35 0.97094181742616426 1.1924787651384665 1.727731247010921 1.0000000180025095e-35 0.62154840832528435 -0.034193478713722289 0.25087823992798358 -0.54604043878862829 2.9206108956400691 1.1082530300852351 2.0844077030098642 0.63441940747489511 0.97094181742616426 0.4150104415701778 2.7058450565951087 0.68990456479520101 0.6085350139059662 1.0000000180025095e-35 0.9529790300556692 0.63442773048237544 1.3162692669944835
decision_type=2 2 2 2 2 2 2 2 2 2 2 2 2 2 2 2 2 2 2 2 2 2 2 2 2 2 2 2 2 2
left_child=1 2 5 -3 -5 14 9 19 -9 16 -11 12 22 -13 -1 21 -4 18 20 -8 -18 -14 -7 -21 -22 -17 -16 -28 -26 -20
right_child=-2 3 6 4 -6 11 7 8 -10 10 -12 13 15 -15 26 25 17 -19 29 23 24 -23 -24 -25 28 -27 27 -29 -30 -31
leaf_value=-0.0013443545115542901 0.64306267917156223 0.038384051912504699 0.0073234971312340349 0.088675894339879366 0.18458683085441591 0.0023502166657587381 0.015398974738006169 0.030710386948194359 0.066311398667819585 0.019482729905039856 0.043761921655386692 -0.016145002775592731 0.0045817930726934327 0.0017566255442097616 -0.00069153942250749494 0.010590276904986241 0.023044459132085506 0.010061511651627601 0.029628269996886194 0.036645278306677936 0.0045516116026026966 0.014790069777518511 0.0073287023708792079 0.021995609421283008 0.022553119723769752 0.020266749858759189 0.0004260575733064219 0.0040230714380646362 0.012029713545492742 0.020377276009983486
leaf_weight=28909 20 23 50 21 25 413 24 20 33 38 20 20 229 344 1357 188 38 63 38 20 22 26 114 20 22 24 1375 172 43 36
leaf_count=28909 20 23 50 21 25 413 24 20 33 38 20 20 229 344 1357 188 38 63 38 20 22 26 114 20 22 24 1375 172 43 36
internal_value=0 -0.000425683 -0.000645216 0.106662 0.140801 -0.000980553 0.0221956 0.0371357 0.0528771 0.0174712 0.0278549 0.00441726 0.00575177 0.00077302 -0.00121097 0.00837505 0.015541 0.0171092 0.0193403 0.0240999 0.0159142 0.00562264 0.00342716 0.0293204 0.0127998 0.0116857 0.000116866 0.000825984 0.0155915 0.0251278
internal_weight=0 33727 33658 69 46 33171 487 117 53 370 58 1358 994 364 31813 467 312 262 199 64 125 255 527 40 87 212 2904 1547 65 74
internal_count=33747 33727 33658 69 46 33171 487 117 53 370 58 1358 994 364 31813 467 312 262 199 64 125 255 527 40 87 212 2904 1547 65 74
is_linear=0
shrinkage=0.05


Tree=22
num_leaves=31
num_cat=0
split_feature=10 10 10 6 10 10 2 8 10 10 6 6 0 0 1 11 6 1 0 0 4 8 0 11 12 8 2 10 10 5
split_gain=2676.93 211.454 44.3675 50.1607 40.8177 9.55671 7.85043 6.18737 6.42476 5.16178 4.99172 3.45139 2.94416 2.87033 1.81359 1.45269 1.41037 1.20875 1.15598 0.971508 1.27067 0.962566 1.58693 0.85908 1.34328 0.831604 0.78391 0.783315 0.782096 0.76268
threshold=12.501922828003245 1.6226664131486588 3.6099324103880623 1.0000000180025095e-35 0.25035243459897266 0.79409948270356523 -0.025263299909360746 -0.5680647467322063 2.6001164639081047 -0.004259278402384211 1.0000000180025095e-35 0.25000000000000017 201515.50000000003 201308.50000000003 3.7185376184109042 2.1921526058530585 0.25000000000000017 1.2728700437643514 201224.50000000003 201601.50000000003 0.7537609906500996 -0.4647231720423865 201603.50000000003 1.211650772675398 1.9524092969706088 -0.88545602565205195 0.27956511763769859 1.2536952019348282 -0.073306522606141969 0.93301270189221952
decision_type=2 2 2 2 2 2 2 2 2 2 2 2 2 2 2 2 2 2 2 2 2 2 2 2 2 2 2 2 2 2
left_child=1 4 6 -4 9 11 -3 -8 12 28 27 17 -9 -12 21 23 -11 18 26 20 -18 -15 -23 24 -13 -19 -6 -7 -1 -20
right_child=-2 2 3 -5 5 10 7 8 -10 16 13 15 -14 14 -16 -17 19 25 29 -21 -22 22 -24 -25 -26 -27 -28 -29 -30 -31
leaf_value=-0.0013590388658360497 0.50710554610078151 0.017214151523710992 0.049014359795929573 0.14020713078975677 0.0066011598252731828 0.0079524035585626703 0.021809469356846353 0.052249505713582035 0.072766078500585127 0.00031064602283080895 0.037624728836817667 0.010477267152343234 0.027732166647911075 0.015307663399726152 0.0090563591137022472 0.024540069028735165 0.0026839888769964438 -0.0041347934942071642 0.0037737906169152875 0.0010813989979859672 0.0085985522043439712 0.037891189219511075 0.019861164818016384 0.004875274817907037 0.024396395502553788 0.0031550016796911581 0.019391730293631556 0.017567386943846942 -0.00073463676493428724 0.010600250854860155
leaf_weight=23742 26 44 38 25 23 87 26 25 22 1594 32 130 24 20 26 20 291 54 248 395 132 23 26 52 20 142 25 28 6358 49
leaf_count=23742 26 44 38 25 23 87 26 25 22 1594 32 130 24 20 26 20 291 54 248 395 132 23 26 52 20 142 25 28 6358 49
internal_value=0 -0.000433134 0.0503179 0.085202 -0.000742028 0.00918228 0.0347314 0.0426774 0.0503192 -0.00104881 0.0178398 0.00643637 0.040241 0.0246732 0.0203106 0.011686 0.00117677 0.00428219 0.00606357 0.00286455 0.00452967 0.0245513 0.0283242 0.0104133 0.0123332 0.00114659 0.0132629 0.0102934 -0.00122715 0.00490004
internal_weight=0 33721 204 63 33517 1005 141 97 71 32512 242 763 49 127 95 222 2412 541 345 818 423 69 49 202 150 196 48 115 30100 297
internal_count=33747 33721 204 63 33517 1005 141 97 71 32512 242 763 49 127 95 222 2412 541 345 818 423 69 49 202 150 196 48 115 30100 297
is_linear=0
shrinkage=0.05


Tree=23
num_leaves=31
num_cat=0
split_feature=9 9 6 9 9 0 5 9 11 6 1 11 9 10 1 4 6 9 8 0 1 0 8 10 12 12 1 9 9 8
split_gain=2744.99 253.345 83.6835 75.7171 13.1727 12.6386 16.8843 8.36385 7.39189 2.44159 2.89482 2.36214 2.27694 3.97164 2.27073 2.15026 2.05639 1.82204 1.4949 1.47613 1.39705 2.06719 3.07097 1.22378 0.851454 1.09757 0.806157 0.756611 0.658763 0.63347
threshold=16.724568162647167 3.04328530207742 0.25000000000000017 0.6244949620871888 0.11266164907139888 201515.50000000003 0.93301270189221952 1.7583029339576097 0.52939188655149805 -0.24999999999999994 2.9206108956400691 1.092621349203218 1.05858144274615 1.2536952019348282 1.727731247010921 0.62154840832528435 1.0000000180025095e-35 -0.034193478713722289 -0.46472317204719987 201302.50000000003 0.41626980606782044 201547.50000000003 0.12053668025561591 1.2687992866044 0.25429109488614782 1.059927648082869 0.95217789503467298 0.23792043453517869 0.40637190464164125 -0.12053668025479378
decision_type=2 2 2 2 2 2 2 2 2 2 2 2 2 2 2 2 2 2 2 2 2 2 2 2 2 2 2 2 2 2
left_child=1 3 5 4 17 6 -3 9 18 23 12 -10 24 -14 16 -16 28 -1 -9 -17 27 22 -22 -5 -11 -26 -25 -18 -6 -29
right_child=-2 2 -4 7 14 -7 -8 8 11 10 -12 -13 13 -15 15 19 20 -19 -20 -21 21 -23 -24 26 25 -27 -28 29 -30 -31
leaf_value=-0.0012155138084274685 0.58555426687002188 0.0089193022018298519 0.17561201736330989 0.0082145346099799822 0.0021189359686184634 0.088105646002551788 0.073111030095744697 0.010278020205441864 0.059127842843632351 0.012154735345087063 0.010580042912624777 0.03616564132195587 0.040978195197466351 0.015036497171968222 -0.015364580843597651 -0.009949300674578318 0.0037858693393167005 9.8308777606317182e-05 0.026678305207998632 0.0024448151631215206 0.011190197633307739 0.0055290533811785288 0.03451011103810743 0.024474712594857683 0.03121809896081686 0.01645667068386341 0.010924925287032412 0.0020094850488962478 0.0064468925129663804 0.010278742293189484
leaf_weight=28909 20 20 20 116 409 23 21 24 21 38 70 24 36 25 20 26 186 2904 33 316 48 64 20 23 20 34 21 29 112 115
leaf_count=28909 20 20 20 116 409 23 21 24 21 38 70 24 36 25 20 26 186 2904 33 316 48 64 20 23 20 34 21 29 112 115
internal_value=0 -0.000387256 0.086338 -0.000603792 -0.00089067 0.0584398 0.041798 0.0190092 0.0317325 0.0156207 0.0190022 0.0468813 0.0228555 0.0303464 0.00395612 0.000570686 0.00520284 -0.00109558 0.0197729 0.00150257 0.00763137 0.0119787 0.018049 0.0109077 0.0178888 0.0219239 0.0180078 0.00589243 0.00304932 0.00861341
internal_weight=0 33727 84 33643 33158 64 41 485 102 383 223 45 153 61 1345 362 983 31813 57 342 462 132 68 160 92 54 44 330 521 144
internal_count=33747 33727 84 33643 33158 64 41 485 102 383 223 45 153 61 1345 362 983 31813 57 342 462 132 68 160 92 54 44 330 521 144
is_linear=0
shrinkage=0.05


Tree=24
num_leaves=31
num_cat=0
split_feature=9 9 9 0 1 9 9 11 6 7 9 1 4 12 9 9 0 4 11 4 0 4 6 8 4 8 12 12 6 1
split_gain=2477.36 231.392 75.5009 54.1198 22.0197 12.2423 9.55218 7.63288 5.05632 2.4258 2.41084 2.0855 1.94684 1.91602 1.76945 1.64439 1.33724 1.25198 1.09433 1.09019 1.5147 1.02302 0.978178 0.93353 1.34508 0.856332 0.839091 0.876553 0.700394 0.818381
threshold=16.724568162647167 3.6134287393608315 0.64393167017639608 201310.50000000003 0.53364726403608664 0.11266164907139888 1.7583029339576097 0.50800188534982571 1.0000000180025095e-35 0.97094181742616426 1.1924787651384665 1.727731247010921 0.62154840832528435 2.635063460717666 0.36317921999895858 -0.034193478713722289 201302.50000000003 0.6503282535827789 -0.34908907318489929 0.59440354800571471 201607.50000000003 0.69345477741420636 -0.68301270189221952 -0.56806474673086049 0.62657227352228573 -0.82298386589334205 1.104460474734936 0.25429109488614782 1.0000000180025095e-35 0.47572670736573658
decision_type=2 2 2 2 2 2 2 2 2 2 2 2 2 2 2 2 2 2 2 2 2 2 2 2 2 2 2 2 2 2
left_child=1 2 5 -3 -5 15 9 23 -9 17 -11 13 -13 14 22 -1 -14 19 -19 -4 -21 -20 -7 -8 -25 -23 27 -27 -16 -30
right_child=-2 3 6 4 -6 11 7 8 -10 10 -12 12 16 -15 28 -17 -18 18 21 20 -22 25 -24 24 -26 26 -28 -29 29 -31
leaf_value=-0.0011547381183887983 0.55627653837203983 0.16041307322680953 0.012625105518382043 0.09433590667322278 0.027173971534585173 0.00028382924182094406 0.011476109354672108 0.025637523289769888 0.057498063626840262 0.017045437331705073 0.038492172844707968 -0.014596351785585285 -0.009451835595357878 0.018948413924711836 0.0056799944851081826 9.3393339224917028e-05 0.0023419781244583592 0.005463742956535185 0.0040657083692494786 0.033698371185788084 0.014924825473942541 0.009275117453394665 0.004469851265024599 0.014805698012933136 0.032721727328713646 0.014297181352352105 0.011699877586215735 0.026214985215726003 0.0083023150206132917 0.017272004197750775
leaf_weight=28909 20 20 40 26 23 193 22 20 33 38 20 20 26 24 145 2904 318 58 25 21 22 45 504 20 22 27 38 36 93 35
leaf_count=28909 20 20 40 26 23 193 22 20 33 38 20 20 26 24 145 2904 318 58 25 21 22 45 504 20 22 27 38 36 93 35
internal_value=0 -0.000367893 -0.000555408 0.0911014 0.0628109 -0.000842346 0.0189887 0.0314415 0.0454752 0.015051 0.0244409 0.00380682 0.000568885 0.00499254 0.00464724 -0.0010408 0.00145059 0.0133054 0.0113986 0.0185665 0.0240933 0.0134116 0.00331074 0.0198198 0.0241903 0.0150119 0.0175679 0.0211074 0.00805947 0.010755
internal_weight=0 33727 33658 69 49 33171 487 117 53 370 58 1358 364 994 970 31813 344 312 229 83 43 171 697 64 42 146 101 63 273 128
internal_count=33747 33727 33658 69 49 33171 487 117 53 370 58 1358 364 994 970 31813 344 312 229 83 43 171 697 64 42 146 101 63 273 128
is_linear=0
shrinkage=0.05


Tree=25
num_leaves=31
num_cat=0
split_feature=9 9 9 0 1 9 9 3 4 4 10 11 0 4 12 1 4 0 10 9 1 3 9 4 11 11 7 5 4 0
split_gain=2226.93 220.188 60.8942 49.334 30.2951 11.1355 6.50768 3.05847 2.99049 4.90992 2.76389 2.76387 2.20076 1.50338 1.92669 1.11901 3.41798 1.7754 1.01064 0.929967 0.853706 1.05861 0.707924 0.676321 1.0132 0.559967 0.484104 1.32742 0.443396 0.471225
threshold=16.724568162647167 3.2246945775766869 0.47548020006993358 201310.50000000003 0.32731815181274138 1.2270329128526125 0.065149695964447904 -0.11513274088732431 0.66118362333434033 0.61097751047773308 1.4349442179696921 2.413598450441639 201316.50000000003 0.75052728126283574 -0.031734976841576105 1.4663677866533888 0.61097751047773308 201276.50000000003 -0.064675617080672251 0.36317921999895858 2.3815099988872306 0.56269500444938303 1.0456236373533452 0.66993209011642019 0.76130453115910479 -0.49282501298105957 0.46472317204224262 1.0000000180025095e-35 0.72168211792340531 201515.50000000003
decision_type=2 2 2 2 2 2 2 2 2 2 2 2 2 2 2 2 2 2 2 2 2 2 2 2 2 2 2 2 2 2
left_child=1 2 6 -3 -5 11 18 8 9 -7 -10 20 -12 14 -9 19 -17 -18 -1 25 22 -22 -4 -21 -25 -8 -27 -28 -29 -30
right_child=-2 3 5 4 -6 7 15 13 10 -11 12 -13 -14 -15 -16 16 17 -19 -20 23 21 -23 -24 24 -26 26 27 28 29 -31
leaf_value=-0.0011445663541269386 0.52739534411579381 0.15126454293727876 0.0096589562177466157 0.10028698908594938 0.027624782384373249 0.021839406020008029 0.00086064474147951292 0.023927990746285238 0.038092713341826484 0.055713099111681402 0.0057301556674550138 0.026939397564400797 0.02762381194836714 0.027774098329246044 0.0070744381682828154 -0.018621709886128487 -0.013002410380258449 0.0019105931734748763 -0.00040359523154727189 0.0035605855492342798 0.0024854740187514666 0.012733448367928052 0.017004472455418845 0.0049602738646272989 0.017401887756617117 0.0022378386809390411 0.017045467306992839 0.0020299851509119325 0.0095526670687831952 0.0034734722621726326
leaf_weight=26120 20 20 289 26 32 20 322 28 21 23 24 23 22 26 43 23 21 402 5586 70 84 36 37 36 30 388 21 139 56 74
leaf_count=26120 20 20 289 26 32 20 322 28 21 23 24 23 22 26 43 23 21 402 5586 70 84 36 37 36 30 388 21 139 56 74
internal_value=0 -0.000363452 -0.000556159 0.083548 0.0601975 0.0143004 -0.000857861 0.0239599 0.0296671 0.0399579 0.0230626 0.0100371 0.016201 0.0174877 0.0137209 0.00227187 0.000149571 0.00117023 -0.00101402 0.00310509 0.00916544 0.00555987 0.0104926 0.00698432 0.0106156 0.00257752 0.00339291 0.00493831 0.00399314 0.0060922
internal_weight=0 34042 33964 78 58 676 33288 207 110 43 67 469 46 97 71 1582 446 423 31706 1136 446 120 326 136 66 1000 678 290 269 130
internal_count=34062 34042 33964 78 58 676 33288 207 110 43 67 469 46 97 71 1582 446 423 31706 1136 446 120 326 136 66 1000 678 290 269 130
is_linear=0
shrinkage=0.05


Tree=26
num_leaves=31
num_cat=0
split_feature=9 9 9 6 1 9 9 3 8 1 9 8 1 9 5 3 5 0 3 6 7 9 1 0 0 6 1 9 6 7
split_gain=2009.8 198.72 54.9696 47.3479 32.351 10.5695 5.44608 2.76027 3.48869 4.00643 2.94738 1.53326 1.56139 1.39778 1.14176 1.10426 1.03177 1.51129 1.73796 0.906147 1.08752 0.905458 0.690535 0.972874 0.751003 0.739311 0.676252 0.667838 0.592709 0.590324
threshold=16.724568162647167 3.2246945775766869 0.45820312621286047 1.0000000180025095e-35 2.3815099988872306 1.2270329128526125 0.065149695964447904 -0.11513274088732431 -0.4647231720420984 1.2728700437643514 1.7583029339576097 0.99270887409820874 2.0188801456548724 2.0844077030098642 0.93301270189221952 0.48246483749307295 0.68301270189221941 201310.50000000003 -0.70440932685272617 0.93301270189221952 -0.1205366802538053 -0.060109089499331907 1.4663677866533888 201304.50000000003 201603.50000000003 -0.68301270189221952 0.53364726403608664 0.17313140757115467 1.0000000180025095e-35 0.46472317204633684
decision_type=2 2 2 2 2 2 2 2 2 2 2 2 2 2 2 2 2 2 2 2 2 2 2 2 2 2 2 2 2 2
left_child=1 2 6 -3 -5 11 21 8 9 -7 -10 12 16 14 -9 29 26 18 -18 22 -21 -1 25 -24 -25 -8 -4 -22 -23 -14
right_child=-2 3 5 4 -6 7 19 13 10 -11 -12 -13 15 -15 -16 -17 17 -19 -20 20 27 28 23 24 -26 -27 -28 -29 -30 -31
leaf_value=-0.0010768277638884614 0.50102556448895486 0.035054669221726197 0.010129420880322619 0.16058016642928125 0.074476929334923628 0.033767530086069281 0.00050672142723665037 0.0087052679772735859 0.023606520199596331 0.0047759969494878679 0.045593632531485392 0.022237552529655993 -0.0051096959155984226 0.026277657284366863 0.022640032816811331 0.010608253942767003 0.0093005304224789143 0.010248383940963142 0.028328802622854712 0.00086303612854527812 0.0060008900324729358 -0.00091545316328859011 -0.0080563913113163681 0.0023746129277625815 -0.0023379465088964936 0.0033568979804312303 0.0034785143720606963 0.018061454380100865 0.00019173605496325798 0.0036964379674033591
leaf_weight=26859 20 34 116 20 24 22 332 49 27 26 35 22 26 27 21 48 20 111 30 38 22 2303 34 249 128 723 57 24 2544 71
leaf_count=26859 20 34 116 20 24 22 332 49 27 26 35 22 26 27 21 48 20 111 30 38 22 2303 34 249 128 723 57 24 2544 71
internal_value=0 -0.000345279 -0.000528351 0.0793706 0.113615 0.0132577 -0.000821848 0.0227619 0.0281838 0.0180638 0.0360186 0.00933084 0.00873805 0.0166134 0.0128857 0.00440546 0.010619 0.0134997 0.0207175 0.00207204 0.0071225 -0.00096332 0.00178266 4.40491e-05 0.000774593 0.00245997 0.00793808 0.0122934 -0.000334333 0.00133603
internal_weight=0 34042 33964 78 44 708 33256 207 110 48 62 501 479 97 70 145 334 161 50 1550 84 31706 1466 411 377 1055 173 46 4847 97
internal_count=34062 34042 33964 78 44 708 33256 207 110 48 62 501 479 97 70 145 334 161 50 1550 84 31706 1466 411 377 1055 173 46 4847 97
is_linear=0
shrinkage=0.05


Tree=27
num_leaves=31
num_cat=0
split_feature=9 9 9 0 0 9 9 7 11 11 12 2 4 4 10 10 9 11 4 6 9 12 0 11 11 10 2 2 12 7
split_gain=1813.85 179.344 49.659 42.7447 12.3933 9.05297 5.2881 2.56085 2.39867 1.86411 3.07958 3.70014 3.19212 1.0465 1.02777 0.853283 0.806529 0.881506 0.722534 0.623602 0.643925 0.618289 0.686113 0.588553 0.90421 0.490856 0.490276 0.521063 0.478961 0.641936
threshold=16.724568162647167 3.2246945775766869 0.47548020006993358 201310.50000000003 201515.50000000003 1.2270329128526125 0.065149695964447904 0.97094181742616426 2.413598450441639 -0.32763821849474412 0.41663514942308949 0.26272350723823851 0.75052728126283574 0.68248453167743672 1.4802564719784084 -0.051729258792467675 0.25087823992798358 0.25454710581933965 0.79887444362533333 0.6830127018922193 1.0456236373533452 1.0921409427717617 201302.50000000003 1.0016758106658081 0.38903331536612801 0.32371513156546533 -0.032728135704937954 1.016077539551002 0.035642216487883474 0.97094181742646657
decision_type=2 2 2 2 2 2 2 2 2 2 2 2 2 2 2 2 2 2 2 2 2 2 2 2 2 2 2 2 2 2
left_child=1 2 6 -3 -5 8 15 9 19 13 11 -11 14 -7 -12 -1 28 26 21 20 -4 22 -19 24 -21 -23 -18 -28 -8 -30
right_child=-2 3 5 4 -6 7 16 -9 -10 10 12 -13 -14 -15 -16 -17 17 18 -20 23 -22 25 -24 -25 -26 -27 27 -29 29 -31
leaf_value=-0.0010122112952420431 0.47597430285066367 0.13843436931259931 0.0066024513268595599 0.032096789446809597 0.078432409844740675 0.017369065160996146 0.00020573847347642011 0.035132151382664838 0.024816284364129863 0.015941525357110159 0.01820027355237731 0.043306416583557925 0.031796257683764338 0.0026035174638742494 0.0040505574187122738 -0.00022194559256728431 -0.00093741588500311727 0.014604326058179141 0.0139635471329093 0.010326058910993328 0.013186055622507065 0.0053369260910484523 0.0053236677581006584 0.0062671377212349657 0.023653199402615427 -0.0029198516612975963 0.0060671684724914006 -0.00074286618768129239 0.001831468345803661 0.0082429644297441155
leaf_weight=27812 20 20 321 31 27 28 519 30 23 21 21 30 23 21 33 3894 105 24 25 35 42 36 117 28 20 36 81 43 554 42
leaf_count=27812 20 20 321 31 27 28 519 30 23 21 21 30 23 21 33 3894 105 24 25 35 42 36 117 28 20 36 81 43 554 42
internal_value=0 -0.000328015 -0.000501933 0.0754021 0.0536668 0.0129143 -0.000774385 0.0216238 0.00907022 0.0193342 0.022509 0.0320385 0.0161972 0.011041 0.00955322 -0.000915154 0.00204688 0.00379132 0.00592217 0.0082582 0.00736419 0.00497835 0.00690335 0.0121681 0.0151723 0.00120854 0.00157672 0.00370562 0.00131625 0.00228329
internal_weight=0 34042 33964 78 58 676 33288 207 469 177 128 51 77 49 54 31706 1582 467 238 446 363 213 141 83 55 72 229 124 1115 596
internal_count=34062 34042 33964 78 58 676 33288 207 469 177 128 51 77 49 54 31706 1582 467 238 446 363 213 141 83 55 72 229 124 1115 596
is_linear=0
shrinkage=0.05


Tree=28
num_leaves=31
num_cat=0
split_feature=9 9 9 0 1 9 9 7 4 0 9 4 0 10 0 1 1 4 0 10 9 4 11 3 1 3 1 3 9 11
split_gain=1637 161.858 44.8173 38.5771 26.0747 8.30175 4.77251 4.66517 2.03276 2.0551 1.75248 1.73359 2.95264 1.28554 1.18734 1.0961 0.947231 3.02287 1.56814 0.782411 0.747161 0.597506 0.840324 0.597094 0.81354 0.614902 0.610862 0.532787 0.699925 0.461656
threshold=16.724568162647167 3.2246945775766869 0.47548020006993358 201310.50000000003 0.32731815181274138 1.7367065916362683 0.065149695964447904 0.88545602565225212 0.62003189520990676 201318.50000000003 0.80374460335432196 0.64479453253854213 201609.50000000003 0.97534849873842944 201509.50000000003 2.0188801456548724 1.4663677866533888 0.61097751047773308 201276.50000000003 -0.064675617080672251 0.36317921999895858 0.69345477741420636 0.56255703777457489 0.46779052609697874 2.0188801456548724 0.86911654845419195 0.29156937521754095 0.051866555089062523 1.3177375506022462 -0.49282501298105957
decision_type=2 2 2 2 2 2 2 2 2 2 2 2 2 2 2 2 2 2 2 2 2 2 2 2 2 2 2 2 2 2
left_child=1 2 6 -3 -5 10 19 8 -7 -10 23 12 -12 14 15 -13 20 -18 -19 -1 29 -22 -23 24 -4 26 -25 -15 -29 -8
right_child=-2 3 5 4 -6 7 16 -9 9 -11 11 13 -14 27 -16 -17 17 18 -20 -21 21 22 -24 25 -26 -27 -28 28 -30 -31
leaf_value=-0.00098425952813858682 0.45217557370662692 0.13151265300810339 0.0077829791268362349 0.088175839869878619 0.020764684490859511 0.0073533794418576036 0.00067936184539304915 0.040799861736013555 0.016032213154539933 0.036162006447003008 0.028627842387709865 0.027644912793766709 0.00711820253033053 0.0031773429444561215 0.0076055823137721745 0.012826987533704738 -0.017661079161031091 -0.012367951971966596 0.0016475828854315448 -0.00033229926204673461 0.0031993897328793535 0.0034921005164505916 0.015268764043734832 0.0089656676530190139 0.0010691978403234057 0.0062510916361134157 0.02048938682343325 0.005972760834598116 0.017698171623051168 0.0029786134793329767
leaf_weight=26120 20 20 159 26 32 28 322 32 32 21 39 24 27 52 32 26 23 21 402 5586 75 28 33 23 63 40 23 35 20 678
leaf_count=26120 20 20 159 26 32 28 322 32 32 21 39 24 27 52 32 26 23 21 402 5586 75 28 33 23 63 40 23 35 20 678
internal_value=0 -0.000311615 -0.000476837 0.071632 0.0509835 0.0122686 -0.000735665 0.0246365 0.018251 0.0240082 0.0097862 0.012852 0.0198284 0.0104158 0.0151263 0.0199396 0.00194453 -8.07958e-06 0.000951776 -0.000869396 0.00271114 0.00618825 0.00986308 0.00724793 0.00587772 0.010785 0.0147275 0.00680591 0.0102365 0.00223825
internal_weight=0 34042 33964 78 58 676 33288 113 81 53 563 255 66 189 82 50 1582 446 423 31706 1136 136 61 308 222 86 46 107 55 1000
internal_count=34062 34042 33964 78 58 676 33288 113 81 53 563 255 66 189 82 50 1582 446 423 31706 1136 136 61 308 222 86 46 107 55 1000
is_linear=0
shrinkage=0.05


Tree=29
num_leaves=31
num_cat=0
split_feature=9 9 9 12 1 9 9 2 12 11 8 1 9 1 2 1 9 8 1 8 1 11 0 3 2 3 0 12 8 1
split_gain=1477.39 146.077 40.4476 36.3323 53.3617 7.50378 4.33896 2.20209 2.67344 1.74065 1.48189 1.46337 1.447 1.52429 1.79238 1.33663 1.08689 0.993675 0.869323 0.843049 0.802153 0.750916 0.720818 0.677692 0.593961 0.580607 0.572188 0.539065 0.574692 0.53239
threshold=16.724568162647167 3.2246945775766869 0.47548020006993358 0.070410673361730972 0.53364726403608664 1.5250624368871233 0.0089992059289603962 -0.21994310650935325 0.38874129557066744 2.413598450441639 0.99270887409820874 1.2728700437643514 1.0456236373533452 2.3815099988872306 0.40126985884637995 2.3815099988872306 0.25087823992798358 -0.23931566428613593 1.4663677866533888 -0.82298386589334205 1.4663677866533888 0.25454710581933965 201304.50000000003 -1.0026482823971021 -0.056826081240637247 -0.45598330945525378 201222.50000000003 2.635063460717666 0.93501624268536854 0.95217789503467298
decision_type=2 2 2 2 2 2 2 2 2 2 2 2 2 2 2 2 2 2 2 2 2 2 2 2 2 2 2 2 2 2
left_child=1 2 6 -3 -5 9 -1 -7 15 10 12 -10 18 14 -14 -9 20 -13 26 24 27 -18 -22 -23 -20 -21 -4 -8 -29 -25
right_child=-2 3 5 4 -6 7 16 8 11 -11 -12 17 13 -15 -16 -17 21 -19 19 25 22 23 -24 29 -26 -27 -28 28 -30 -31
leaf_value=-0.00086288158855302947 0.42956679940223697 0.022449289328817811 0.013972519050751414 0.15428706247891699 0.049631780578658496 0.011868885343428701 0.0011354517924042132 0.04484859932214022 0.008009717881213874 0.021296135261999791 0.021270123669611559 0.017109381382099605 0.011403514053318246 0.0047439436207672488 0.028259326339078447 0.026787585215199562 0.0014230795714353628 0.032508307667449117 -0.0089228176593314865 -0.0006572071183472872 -0.0084962480904294119 0.012459121436501543 -0.00057242932910551156 0.0067624466254658597 0.0025382808983872218 0.0082716858320271789 0.0070527887948521641 0.012460413834461096 0.0014802178967959034 0.0016881933177501198
leaf_weight=30750 20 28 35 21 29 40 1605 20 20 27 21 22 46 38 24 21 229 20 20 25 31 30 387 112 26 67 204 22 26 96
leaf_count=30750 20 28 35 21 29 40 1605 20 20 27 21 22 46 38 24 21 229 20 20 25 31 30 387 112 26 67 204 22 26 96
internal_value=0 -0.000296034 -0.000452995 0.0680504 0.093587 0.0116551 -0.000698882 0.0218254 0.025692 0.00892653 0.0082665 0.0191414 0.00770345 0.0128061 0.0171826 0.0355978 0.00128811 0.0244422 0.00624169 0.00308197 0.000796765 0.00346707 -0.00116008 0.00543376 -0.00244481 0.00584536 0.00806614 0.0012916 0.00651281 0.00442048
internal_weight=0 34042 33964 78 50 676 33288 143 103 533 506 62 485 108 70 41 2538 42 377 138 2071 467 418 238 46 92 239 1653 48 208
internal_count=34062 34042 33964 78 50 676 33288 143 103 533 506 62 485 108 70 41 2538 42 377 138 2071 467 418 238 46 92 239 1653 48 208
is_linear=0
shrinkage=0.05


Tree=30
num_leaves=31
num_cat=0
split_feature=9 9 9 9 2 9 3 1 9 9 9 1 0 9 4 1 1 0 6 7 4 6 0 3 7 6 1 4 0 6
split_gain=1396.09 154.668 52.3753 10.1551 8.33844 12.4953 5.01966 2.79397 2.04036 1.98898 1.70248 1.69367 2.70908 1.53074 1.26998 1.22118 1.11474 0.984005 0.916502 0.939039 1.53727 0.814403 0.653535 0.649507 0.571136 0.568702 0.52177 1.54622 0.461251 0.436379
threshold=13.079105578804745 5.3281783196753354 0.9549189996037114 0.19904701835676428 0.22075837300381368 3.2246945775766869 -1.1886023675114292 0.18206564936755135 2.8813127346673597 2.0844077030098642 0.45820312621286047 2.9206108956400691 201314.50000000003 -0.00827786792811268 0.66380051925310457 -0.079671097219901246 2.0188801456548724 201310.50000000003 0.93301270189221952 -0.1205366802538053 0.74038884867867338 -0.5 201328.50000000003 0.029270219967875866 0.12053668025741678 0.25000000000000017 0.95217789503467298 0.60215748674482261 201246.50000000003 -0.24999999999999994
decision_type=2 2 2 2 2 2 2 2 2 2 2 2 2 2 2 2 2 2 2 2 2 2 2 2 2 2 2 2 2 2
left_child=1 2 3 13 8 6 -6 -8 14 11 28 12 -9 -1 15 -4 17 21 26 -20 -21 -12 -19 -13 -24 -18 -15 -28 -5 -30
right_child=-2 -3 4 10 5 -7 7 9 -10 -11 16 23 -14 18 -16 -17 25 22 19 20 -22 -23 24 -25 -26 -27 27 -29 29 -31
leaf_value=-0.00083238688938504397 0.40752593733015519 0.10330480299890042 0.011535220423882659 -0.0012510616060353642 0.045542419087141753 0.063772062286734585 0.035355337933552541 0.029624118266144285 -0.0032295810097518066 0.026886667176586346 0.0058780969213694341 -0.0013945962861180306 0.0070115466763337082 0.00064854040742647631 0.0084397332842594801 0.028606194015592334 0.00025912279833857789 0.00060055349029612562 0.00046579359697674613 0.0037023242759711018 0.019224952783604917 0.015913324127998955 0.01085915407340508 0.010805622030360004 0.0050826485782517533 0.0070674897931820276 -0.013560618976286302 -0.00056545598751755381 0.0013984495102617013 0.0042648640911569528
leaf_weight=30150 21 36 22 70 20 20 22 27 24 32 30 20 26 1671 63 20 82 39 87 58 22 62 80 24 92 49 24 495 229 316
leaf_count=30150 21 36 22 70 20 20 22 27 24 32 30 20 26 1671 63 20 82 39 87 58 22 62 80 24 92 49 24 495 229 316
internal_value=0 -0.000278135 -0.000388212 -0.000580202 0.0197443 0.0263774 0.0220037 0.018886 0.00992319 0.0160773 0.00426182 0.0125113 0.0185312 -0.000736454 0.0129295 0.0196643 0.00665964 0.00832583 0.000490693 0.00406112 0.00797105 0.012641 0.00644435 0.00526007 0.0077694 0.00280576 0.000218427 -0.00116639 0.0025697 0.00306044
internal_weight=0 33912 33876 33556 320 191 171 151 129 129 1049 97 53 32507 105 42 434 303 2357 167 80 92 211 44 172 131 2190 519 615 545
internal_count=33933 33912 33876 33556 320 191 171 151 129 129 1049 97 53 32507 105 42 434 303 2357 167 80 92 211 44 172 131 2190 519 615 545
is_linear=0
shrinkage=0.05


Tree=31
num_leaves=31
num_cat=0
split_feature=9 9 9 9 6 4 8 1 4 1 4 4 9 7 8 1 10 6 7 4 1 4 8 7 1 9 8 10 4 8
split_gain=1259.97 139.588 47.3885 10.1539 4.65421 6.54692 9.62818 6.39398 3.41647 2.83267 3.72211 2.41724 1.88073 1.26442 1.15441 0.909784 0.88679 0.821014 0.609308 1.40153 0.58813 2.72099 0.604083 0.513499 0.66144 0.456354 0.462012 0.42186 0.418063 0.401337
threshold=13.079105578804745 5.3281783196753354 1.0456236373533452 0.26383604532078836 1.0000000180025095e-35 0.73495026952763232 -0.12053668025382605 0.20657438147418292 0.81287890646482719 0.71017320525011618 0.59620752564011548 0.76124996508256859 0.017637742857496936 0.99270887409824737 0.9927088740979112 0.059758336954588626 2.2591956956520507 0.93301270189221952 -0.1205366802538053 0.69795830768815259 1.4663677866533888 0.61097751047773308 -0.88545602565205195 0.56806474673159402 1.4663677866533888 0.61801605939078641 0.88545602565390613 -0.077621975368876842 0.78072442925001873 0.23931566428549461
decision_type=2 2 2 2 2 2 2 2 2 2 2 2 2 2 2 2 2 2 2 2 2 2 2 2 2 2 2 2 2 2
left_child=1 2 3 12 9 6 -6 -8 11 10 -4 -7 27 14 15 29 -11 20 -19 -20 -14 -22 28 24 -17 26 -26 -1 -23 -5
right_child=-2 -3 4 13 5 8 7 -9 -10 16 -12 -13 17 -15 -16 23 -18 18 19 -21 21 22 -24 -25 25 -27 -28 -29 -30 -31
leaf_value=-0.00089504775968686154 0.3871496629147303 0.09813956149025925 0.0076499021674195922 0.004855764910663563 0.059948027271915366 0.01809615191373536 0.043880010343326087 0.0086346971171517538 0.031985207031602451 0.0096210498171739097 0.032355079739805191 -0.0021563759682556756 0.0010130362544409442 0.013756309823427154 0.012709074111189695 0.0034615580259737839 -0.0027577929198741914 0.0011335438451609546 0.0015857789454654465 0.01626638061013715 -0.018687530806554217 -0.0011205041881961126 0.00067640874219403744 0.0046760388835766923 -0.0061379801350171272 0.0026087424865788005 0.0026252673207116978 -0.00048629209166248244 -0.0099741322131497636 0.0095823518315270584
leaf_weight=21914 21 36 30 94 27 34 22 31 23 39 31 26 1444 38 40 205 23 62 37 29 21 30 309 269 53 48 21 8866 24 86
leaf_count=21914 21 36 30 94 27 34 22 31 23 39 31 26 1444 38 40 205 23 62 37 29 21 30 309 269 53 48 21 8866 24 86
internal_value=0 -0.000264228 -0.000368802 -0.000541361 0.0198979 0.0254386 0.0356454 0.0232648 0.0156008 0.0125553 0.020205 0.00932006 -0.000681771 0.00484091 0.00442573 0.00399876 0.0050289 0.000821616 0.0046928 0.00803635 0.000550548 -0.0011886 -0.000176264 0.0030579 0.00172678 -0.00118822 -0.00365111 -0.000777308 -0.00505545 0.00711402
internal_weight=0 33912 33876 33590 286 163 80 53 83 123 61 60 32736 854 816 776 62 1956 128 66 1828 384 363 596 327 122 74 30780 54 180
internal_count=33933 33912 33876 33590 286 163 80 53 83 123 61 60 32736 854 816 776 62 1956 128 66 1828 384 363 596 327 122 74 30780 54 180
is_linear=0
shrinkage=0.05


Tree=32
num_leaves=31
num_cat=0
split_feature=9 9 9 9 2 9 3 1 7 9 9 11 4 1 9 6 11 11 11 9 1 6 10 3 7 1 7 4 3 6
split_gain=1137.12 125.978 42.7681 9.19186 8.06451 9.80281 4.47494 2.65977 2.59592 1.71773 1.67278 1.34472 1.2669 3.04527 1.24914 0.965622 0.921075 1.03725 0.873445 1.0576 0.788948 0.757779 0.772634 0.635537 0.713008 0.40663 0.584106 0.79458 0.73007 0.459261
threshold=13.079105578804745 5.3281783196753354 1.0456236373533452 0.19904701835676428 0.16545411058583362 3.2246945775766869 -1.1304138953819611 4.8845027629868829 0.93501624268507311 2.8813127346673597 0.45820312621286047 2.413598450441639 0.61451970068795936 1.4663677866533888 -0.042832015642258824 0.6830127018922193 1.0016758106658081 0.38903331536612801 0.50800188534982571 1.7129506150827929 2.0188801456548724 0.93301270189221952 0.15541247381880569 1.2854914308767842 0.88545602565266845 0.82207114900164335 0.56806474673159402 0.78754015306362535 0.75737701893624931 -0.5
decision_type=2 2 2 2 2 2 2 2 2 2 2 2 2 2 2 2 2 2 2 2 2 2 2 2 2 2 2 2 2 2
left_child=1 2 3 14 9 6 -6 8 12 18 25 15 -8 -14 -1 20 17 -17 19 -4 -12 -16 23 24 -23 29 28 -28 -27 -5
right_child=-2 -3 4 10 5 -7 7 -9 -10 -11 11 -13 13 -15 21 16 -18 -19 -20 -21 -22 22 -24 -25 -26 26 27 -29 -30 -31
leaf_value=-0.00078098532051184709 0.3677921769164858 0.093232584008688321 0.0089241856908254136 0.00066883878884814647 0.043398385904729365 0.058496788730844851 0.0080237997770309447 0.0046368116336264493 0.035812856793403625 -0.0035448618621254958 0.0059974057671647873 0.016894354354527814 0.037243241984397178 0.013027114304084634 -3.18922087487194e-05 0.0086244870430957059 0.0023791271691712048 0.022012353024404983 0.0024297393392771482 0.021730703749095224 0.00086455396452004586 -0.00018184072710229589 0.011833259423309799 0.00949214273551479 0.0064838378985004972 -0.0042717046864152721 0.0012033152206778379 0.010564807000836092 0.0039909838376423487 0.0046467669374699958
leaf_weight=28530 21 36 38 104 20 20 25 29 25 24 244 28 20 37 3678 39 26 23 20 28 108 203 21 25 50 85 119 28 39 240
leaf_count=28530 21 36 38 104 20 20 25 29 25 24 244 28 20 37 3678 39 26 23 20 28 108 203 21 25 50 85 119 28 39 240
internal_value=0 -0.000251017 -0.000350362 -0.000514293 0.018903 0.0255407 0.0213155 0.018068 0.0217083 0.0082827 0.0040172 0.00626982 0.0174081 0.021524 -0.000665264 0.00559372 0.0102784 0.013591 0.0115834 0.0143573 0.00442255 0.000164893 0.00258555 0.00188698 0.00113549 0.002303 0.000854474 0.00298646 -0.00167296 0.00344414
internal_weight=0 33912 33876 33590 286 176 156 136 107 110 1083 468 82 57 32507 440 88 62 86 66 352 3977 299 278 253 615 271 147 124 344
internal_count=33933 33912 33876 33590 286 176 156 136 107 110 1083 468 82 57 32507 440 88 62 86 66 352 3977 299 278 253 615 271 147 124 344
is_linear=0
shrinkage=0.05


Tree=33
num_leaves=31
num_cat=0
split_feature=10 10 6 10 2 10 10 3 1 10 6 1 10 11 10 10 1 1 12 12 1 1 2 6 12 2 2 2 8 0
split_gain=1014.88 100.826 60.2703 35.2692 6.11101 8.63268 5.88758 3.258 1.33449 1.27586 1.24579 1.09247 1.85694 1.08823 1.63125 0.882834 0.834582 1.01603 0.808709 0.744344 0.843898 0.697878 0.631918 0.620697 0.611525 0.484721 0.524175 0.471508 0.526411 0.468915
threshold=16.467823916956586 5.3598485056770491 1.0000000180025095e-35 0.77252221888989092 0.17475227986942324 2.6519018970609229 0.10362704066598734 -0.72978760210193039 4.8845027629868829 1.6226664131486588 0.6830127018922193 1.4663677866533888 2.0822621323799217 1.1617204853753347 0.27192969841264697 -0.04309835326699795 2.0188801456548724 -0.035559154702362566 2.3929618436932105 1.104460474734936 0.82207114900164335 -0.1646680933156284 0.60464794232374308 1.0000000180025095e-35 -0.063735341348389402 1.4159271877248598 -0.24906867876024913 -0.10441528061177957 -0.74851074816962071 201310.50000000003
decision_type=2 2 2 2 2 2 2 2 2 2 2 2 2 2 2 2 2 2 2 2 2 2 2 2 2 2 2 2 2 2
left_child=1 3 -3 6 11 7 15 -6 9 19 18 12 24 14 -12 -1 17 -16 21 20 -9 -8 -20 -17 -5 26 -23 28 -13 -28
right_child=-2 2 -4 4 5 -7 10 8 -10 -11 13 27 -14 -15 16 23 -18 -19 22 -21 -22 25 -24 -25 -26 -27 29 -29 -30 -31
leaf_value=-0.00074176984546271945 0.35604651570320134 0.017728928010910749 0.14047894708812236 0.0032793581410607495 0.030110486087505706 0.042595014480106969 0.0049418871472568888 0.020543676225797221 0.0025411401737343384 0.022395655844742672 0.004111380110272264 -0.00059553945538937114 0.021436974937441174 0.0007514938086760828 0.0096485759419876905 -0.00057741285778711491 0.00609135752975303 0.024566971018910408 0.0036358780267619299 0.0059729274026014741 0.0098896397635476994 -5.9922791157802438e-05 0.014965409305877983 0.00076782164034032386 0.012356641645809371 -0.0028980544607346767 0.0046237691553224899 -0.0035022372677922251 0.01073888895390112 0.0015229603982374982
leaf_weight=28512 20 20 20 55 32 34 140 34 27 39 113 20 27 78 21 1685 23 25 32 36 41 359 20 1746 28 68 165 25 21 467
leaf_count=28512 20 20 20 55 32 34 140 34 27 39 113 20 27 78 21 1685 23 25 32 36 41 359 20 1746 28 68 165 25 21 467
internal_value=0 -0.000232074 0.0791039 -0.000325761 0.0140907 0.0192296 -0.000506322 0.0154285 0.0127742 0.0146161 0.00254347 0.00699545 0.0100468 0.00569268 0.00781034 -0.000650586 0.0138681 0.0177564 0.00188896 0.0118828 0.0147195 0.00162421 0.00799339 0.000107163 0.00634157 0.00118561 0.00146582 0.00190985 0.0052099 0.00233251
internal_weight=0 33913 40 33873 419 243 33454 209 177 150 1511 176 110 260 182 31943 69 46 1251 111 75 1199 52 3431 83 1059 991 66 41 632
internal_count=33933 33913 40 33873 419 243 33454 209 177 150 1511 176 110 260 182 31943 69 46 1251 111 75 1199 52 3431 83 1059 991 66 41 632
is_linear=0
shrinkage=0.05


Tree=34
num_leaves=31
num_cat=0
split_feature=9 9 9 9 2 9 3 1 9 9 9 1 0 1 0 10 6 9 12 3 6 0 7 1 0 0 6 3 6 7
split_gain=932.946 102.357 35.074 6.85025 5.84354 8.84101 3.94215 2.21018 1.81268 1.64882 1.48175 1.37371 2.26524 0.847512 0.839293 0.78495 0.654396 0.610199 0.576204 0.565972 0.541204 0.54117 0.503554 0.457813 0.585392 0.688404 0.557711 0.458401 0.552765 0.45318
threshold=13.079105578804745 5.3281783196753354 0.9549189996037114 0.11266164907139888 0.22075837300381368 3.2246945775766869 -1.1886023675114292 0.18206564936755135 0.45820312621286047 2.8813127346673597 2.0844077030098642 2.9206108956400691 201314.50000000003 2.0188801456548724 201310.50000000003 1.9830067188370195 -0.5 -0.064428357963600164 2.635063460717666 0.029270219967875866 0.25000000000000017 201328.50000000003 0.9529790300556692 1.2728700437643514 201276.50000000003 201601.50000000003 -0.68301270189221952 -0.44309226092391546 0.25000000000000017 0.12053668025741678
decision_type=2 2 2 2 2 2 2 2 2 2 2 2 2 2 2 2 2 2 2 2 2 2 2 2 2 2 2 2 2 2
left_child=1 2 3 17 9 6 -6 -8 18 15 11 12 -9 14 16 -4 -10 -1 23 -13 -19 -16 -22 26 -25 27 -5 -26 -29 -23
right_child=-2 -3 4 8 5 -7 7 10 13 -11 -12 19 -14 -15 21 -17 -18 20 -20 -21 22 29 -24 24 25 -27 -28 28 -30 -31
leaf_value=-0.00073526786611392099 0.33314000964164736 0.084037669162757497 0.0076475583943276032 7.9884960588835264e-05 0.038891951542682365 0.053165835728868842 0.029917183903638612 0.025258349889406451 0.0048915886506438258 -0.0038869869817669193 0.022100882115773858 -0.0030492761591449382 0.0045809124811337547 0.0021554154627998665 -8.6798527254126011e-05 0.016886391638613798 0.013887139648244146 -0.00056765248074763515 0.0093700306334843237 0.0083393968292511996 0.00016943267275817893 0.0091889818105846659 0.0026294489633785461 -0.008287828771863133 -0.00083882826174992849 -0.0030330024252180014 0.0030892455201688763 0.0021609760651632249 0.0098329544734830666 0.0040434428271786914
leaf_weight=26068 21 36 71 216 20 20 22 27 30 24 32 20 26 131 39 34 62 3533 24 24 2177 80 230 20 85 95 536 108 30 92
leaf_count=26068 21 36 71 216 20 20 22 27 30 24 32 20 26 131 39 34 62 3533 24 24 2177 80 230 20 85 95 536 108 30 92
internal_value=0 -0.00022729 -0.000316839 -0.00047395 0.0161582 0.021711 0.0180321 0.0152692 0.00277454 0.00793664 0.0127711 0.00969319 0.0151147 0.00551576 0.00696858 0.0106392 0.0109538 -0.000631056 0.0017066 0.00316273 -0.000173719 0.00523095 0.000404499 0.00153786 9.41373e-06 0.000531253 0.00222485 0.00204966 0.0038288 0.00643672
internal_weight=0 33912 33876 33556 320 191 171 151 1548 129 129 97 53 434 303 105 92 32008 1114 44 5940 211 2407 1090 338 318 752 223 138 172
internal_count=33933 33912 33876 33556 320 191 171 151 1548 129 129 97 53 434 303 105 92 32008 1114 44 5940 211 2407 1090 338 318 752 223 138 172
is_linear=0
shrinkage=0.05


Tree=35
num_leaves=31
num_cat=0
split_feature=9 9 1 11 9 12 5 12 0 2 9 8 12 2 9 8 2 11 12 0 0 1 8 4 1 0 5 9 1 1
split_gain=829.813 56.2826 30.5412 61.165 12.932 11.3579 8.75114 7.73634 7.17062 4.56858 2.39377 2.19838 2.27419 1.86343 1.72754 0.946044 0.93468 0.590499 0.537181 0.569858 0.564032 0.605031 0.531955 0.503909 0.499633 0.494775 1.68939 0.5507 0.529197 0.402416
threshold=16.724568162647167 1.7583029339576097 0.47572670736573658 0.50800188534982571 0.25087823992798358 1.4333463502555304 0.68301270189221941 -0.18206368538974285 201314.50000000003 1.209862579843376 0.64393167017639608 0.99270887409820874 2.1914994728485109 0.732995855275277 0.021957011321765207 -0.23931566428882825 -0.48575954672337801 0.56255703777457489 0.044980725901943928 201308.50000000003 201250.50000000003 1.4663677866533888 0.992708874097887 0.79554179853000262 1.4663677866533888 201314.50000000003 0.68301270189221941 0.77350972410444407 0.36911093696577374 2.3815099988872306
decision_type=2 2 2 2 2 2 2 2 2 2 2 2 2 2 2 2 2 2 2 2 2 2 2 2 2 2 2 2 2 2
